{"learner":{"attributes":{"scikit_learn":"{\"_estimator_type\": \"regressor\"}"},"feature_names":["open","high","low","close","volume","rsi_14","macd","macd_signal","macd_diff","ema_9","ema_21","sma_50","sma_200","bb_high","bb_low","bb_width","atr_14","obv","vwap","hour","day","month","weekday","is_weekend","rolling_volatility","rolling_volume","price_amplitude","lag_close_1","lag_return_1","lag_close_2","lag_return_2","lag_close_3","lag_return_3","lag_close_6","lag_return_6","lag_close_12","lag_return_12","lag_close_24","lag_return_24","sentiment_hourly"],"feature_types":["float","float","float","float","float","float","float","float","float","float","float","float","float","float","float","float","float","float","float","float","float","float","float","float","float","float","float","float","float","float","float","float","float","float","float","float","float","float","float","float"],"gradient_booster":{"model":{"cats":{"enc":[],"feature_segments":[],"sorted_idx":[]},"gbtree_model_param":{"num_parallel_tree":"1","num_trees":"600"},"iteration_indptr":[0,1,2,3,4,5,6,7,8,9,10,11,12,13,14,15,16,17,18,19,20,21,22,23,24,25,26,27,28,29,30,31,32,33,34,35,36,37,38,39,40,41,42,43,44,45,46,47,48,49,50,51,52,53,54,55,56,57,58,59,60,61,62,63,64,65,66,67,68,69,70,71,72,73,74,75,76,77,78,79,80,81,82,83,84,85,86,87,88,89,90,91,92,93,94,95,96,97,98,99,100,101,102,103,104,105,106,107,108,109,110,111,112,113,114,115,116,117,118,119,120,121,122,123,124,125,126,127,128,129,130,131,132,133,134,135,136,137,138,139,140,141,142,143,144,145,146,147,148,149,150,151,152,153,154,155,156,157,158,159,160,161,162,163,164,165,166,167,168,169,170,171,172,173,174,175,176,177,178,179,180,181,182,183,184,185,186,187,188,189,190,191,192,193,194,195,196,197,198,199,200,201,202,203,204,205,206,207,208,209,210,211,212,213,214,215,216,217,218,219,220,221,222,223,224,225,226,227,228,229,230,231,232,233,234,235,236,237,238,239,240,241,242,243,244,245,246,247,248,249,250,251,252,253,254,255,256,257,258,259,260,261,262,263,264,265,266,267,268,269,270,271,272,273,274,275,276,277,278,279,280,281,282,283,284,285,286,287,288,289,290,291,292,293,294,295,296,297,298,299,300,301,302,303,304,305,306,307,308,309,310,311,312,313,314,315,316,317,318,319,320,321,322,323,324,325,326,327,328,329,330,331,332,333,334,335,336,337,338,339,340,341,342,343,344,345,346,347,348,349,350,351,352,353,354,355,356,357,358,359,360,361,362,363,364,365,366,367,368,369,370,371,372,373,374,375,376,377,378,379,380,381,382,383,384,385,386,387,388,389,390,391,392,393,394,395,396,397,398,399,400,401,402,403,404,405,406,407,408,409,410,411,412,413,414,415,416,417,418,419,420,421,422,423,424,425,426,427,428,429,430,431,432,433,434,435,436,437,438,439,440,441,442,443,444,445,446,447,448,449,450,451,452,453,454,455,456,457,458,459,460,461,462,463,464,465,466,467,468,469,470,471,472,473,474,475,476,477,478,479,480,481,482,483,484,485,486,487,488,489,490,491,492,493,494,495,496,497,498,499,500,501,502,503,504,505,506,507,508,509,510,511,512,513,514,515,516,517,518,519,520,521,522,523,524,525,526,527,528,529,530,531,532,533,534,535,536,537,538,539,540,541,542,543,544,545,546,547,548,549,550,551,552,553,554,555,556,557,558,559,560,561,562,563,564,565,566,567,568,569,570,571,572,573,574,575,576,577,578,579,580,581,582,583,584,585,586,587,588,589,590,591,592,593,594,595,596,597,598,599,600],"tree_info":[0,0,0,0,0,0,0,0,0,0,0,0,0,0,0,0,0,0,0,0,0,0,0,0,0,0,0,0,0,0,0,0,0,0,0,0,0,0,0,0,0,0,0,0,0,0,0,0,0,0,0,0,0,0,0,0,0,0,0,0,0,0,0,0,0,0,0,0,0,0,0,0,0,0,0,0,0,0,0,0,0,0,0,0,0,0,0,0,0,0,0,0,0,0,0,0,0,0,0,0,0,0,0,0,0,0,0,0,0,0,0,0,0,0,0,0,0,0,0,0,0,0,0,0,0,0,0,0,0,0,0,0,0,0,0,0,0,0,0,0,0,0,0,0,0,0,0,0,0,0,0,0,0,0,0,0,0,0,0,0,0,0,0,0,0,0,0,0,0,0,0,0,0,0,0,0,0,0,0,0,0,0,0,0,0,0,0,0,0,0,0,0,0,0,0,0,0,0,0,0,0,0,0,0,0,0,0,0,0,0,0,0,0,0,0,0,0,0,0,0,0,0,0,0,0,0,0,0,0,0,0,0,0,0,0,0,0,0,0,0,0,0,0,0,0,0,0,0,0,0,0,0,0,0,0,0,0,0,0,0,0,0,0,0,0,0,0,0,0,0,0,0,0,0,0,0,0,0,0,0,0,0,0,0,0,0,0,0,0,0,0,0,0,0,0,0,0,0,0,0,0,0,0,0,0,0,0,0,0,0,0,0,0,0,0,0,0,0,0,0,0,0,0,0,0,0,0,0,0,0,0,0,0,0,0,0,0,0,0,0,0,0,0,0,0,0,0,0,0,0,0,0,0,0,0,0,0,0,0,0,0,0,0,0,0,0,0,0,0,0,0,0,0,0,0,0,0,0,0,0,0,0,0,0,0,0,0,0,0,0,0,0,0,0,0,0,0,0,0,0,0,0,0,0,0,0,0,0,0,0,0,0,0,0,0,0,0,0,0,0,0,0,0,0,0,0,0,0,0,0,0,0,0,0,0,0,0,0,0,0,0,0,0,0,0,0,0,0,0,0,0,0,0,0,0,0,0,0,0,0,0,0,0,0,0,0,0,0,0,0,0,0,0,0,0,0,0,0,0,0,0,0,0,0,0,0,0,0,0,0,0,0,0,0,0,0,0,0,0,0,0,0,0,0,0,0,0,0,0,0,0,0,0,0,0,0,0,0,0,0,0,0,0,0,0,0,0,0,0,0,0,0,0,0,0,0,0,0,0,0,0,0,0,0,0,0,0,0,0,0,0,0,0,0,0,0,0,0,0,0,0,0,0,0,0,0,0,0,0,0,0,0,0,0,0,0,0,0,0,0,0,0,0,0,0,0,0,0,0,0,0,0,0,0,0,0,0,0,0,0],"trees":[{"base_weights":[-0E0,-1.8769024E-3,1.31362025E-2,-1.1872291E-2,-3.7425687E-4,6.439048E-3,1.5893357E-2,-1.7698903E-2,-8.394105E-3,-6.267715E-3,6.08488E-4,-0E0,7.0047104E-3,-0E0,1.6497696E-2,-3.5722388E-4,-0E0,-8.6808065E-3,-0E0,-6.8987147E-3,-0E0,-3.3760796E-6,6.718973E-3,-0E0,7.5878166E-3,1.6732195E-2,-0E0,-0E0,-1.755947E-4,-1.4979191E-4,-0E0,-8.80652E-6,7.619647E-5,-0E0,1.4920055E-4,1.5329513E-4,-0E0,-0E0,3.3760874E-4],"categories":[],"categories_nodes":[],"categories_segments":[],"categories_sizes":[],"default_left":[0,0,0,0,0,0,0,0,0,0,0,0,0,0,0,0,0,0,0,0,0,0,0,0,0,0,0,0,0,0,0,0,0,0,0,0,0,0,0],"id":0,"left_children":[1,3,5,7,9,11,13,15,17,19,21,-1,23,-1,25,-1,-1,27,-1,29,-1,31,33,-1,35,37,-1,-1,-1,-1,-1,-1,-1,-1,-1,-1,-1,-1,-1],"loss_changes":[4.363822E-2,2.1495445E-2,1.7636679E-3,1.0724161E-3,8.243826E-3,3.4022704E-4,6.8058446E-4,2.1474436E-5,3.3987127E-4,8.85766E-4,4.866501E-3,0E0,2.671976E-4,0E0,2.3544952E-4,0E0,0E0,6.520748E-5,0E0,7.48422E-4,0E0,1.3409022E-3,5.615433E-4,0E0,1.8704915E-5,1.02784485E-4,0E0,0E0,0E0,0E0,0E0,0E0,0E0,0E0,0E0,0E0,0E0,0E0,0E0],"parents":[2147483647,0,0,1,1,2,2,3,3,4,4,5,5,6,6,7,7,8,8,9,9,10,10,12,12,14,14,17,17,19,19,21,21,22,22,24,24,25,25],"right_children":[2,4,6,8,10,12,14,16,18,20,22,-1,24,-1,26,-1,-1,28,-1,30,-1,32,34,-1,36,38,-1,-1,-1,-1,-1,-1,-1,-1,-1,-1,-1,-1,-1],"split_conditions":[7.5177234E-1,1.1652084E-1,8.713096E-1,2.0518051E-2,3.253453E-1,2.771359E-1,2.7287462E-1,6.3764244E-1,6.8113315E-1,1.0425973E0,5.0002164E-1,-0E0,2.809717E-1,-0E0,9.266105E-1,-3.5722388E-4,-0E0,3.9930765E-2,-0E0,4.1197383E-1,-0E0,7.43968E-1,1.9021505E-1,-0E0,9.951927E-1,1.4435653E-1,-0E0,-0E0,-1.755947E-4,-1.4979191E-4,-0E0,-8.80652E-6,7.619647E-5,-0E0,1.4920055E-4,1.5329513E-4,-0E0,-0E0,3.3760874E-4],"split_indices":[3,3,3,3,32,30,30,5,38,4,32,0,8,0,7,0,0,15,0,34,0,6,1,0,7,7,0,0,0,0,0,0,0,0,0,0,0,0,0],"split_type":[0,0,0,0,0,0,0,0,0,0,0,0,0,0,0,0,0,0,0,0,0,0,0,0,0,0,0,0,0,0,0,0,0,0,0,0,0,0,0],"sum_hessian":[1.733E3,1.512E3,2.21E2,1.88E2,1.324E3,7.6E1,1.45E2,5.8E1,1.3E2,2.03E2,1.121E3,5E0,7.1E1,8E0,1.37E2,5.7E1,1E0,1.26E2,4E0,1.86E2,1.7E1,1.005E3,1.16E2,6E0,6.5E1,1.34E2,3E0,2E0,1.24E2,1.71E2,1.5E1,9.26E2,7.9E1,1.2E1,1.04E2,6.4E1,1E0,2E0,1.32E2],"tree_param":{"num_deleted":"0","num_feature":"40","num_nodes":"39","size_leaf_vector":"1"}},{"base_weights":[-0E0,-1.8061526E-3,1.2701279E-2,-1.1552425E-2,-3.1927222E-4,6.6889334E-3,1.5741076E-2,-1.7806066E-2,-7.741141E-3,-4.819313E-3,9.931236E-4,-0E0,7.2515598E-3,-0E0,1.6388167E-2,-3.5924267E-4,-0E0,-8.0951005E-3,-0E0,-8.123031E-3,-2.403221E-3,6.8264126E-5,7.0847743E-3,-0E0,7.7844406E-3,1.6640818E-2,-0E0,-0E0,-1.6386775E-4,-1.7323974E-4,-0E0,-5.8275582E-5,-0E0,-1.8074311E-6,9.892259E-5,-0E0,1.5333558E-4,1.570936E-4,-0E0,-0E0,3.3441614E-4],"categories":[],"categories_nodes":[],"categories_segments":[],"categories_sizes":[],"default_left":[0,0,0,0,0,0,0,0,0,0,0,0,0,0,0,0,0,0,0,0,0,0,0,0,0,0,0,0,0,0,0,0,0,0,0,0,0,0,0,0,0],"id":1,"left_children":[1,3,5,7,9,11,13,15,17,19,21,-1,23,-1,25,-1,-1,27,-1,29,31,33,35,-1,37,39,-1,-1,-1,-1,-1,-1,-1,-1,-1,-1,-1,-1,-1,-1,-1],"loss_changes":[4.0604267E-2,2.0807302E-2,1.6907752E-3,1.8836446E-3,8.224448E-3,3.6685518E-4,6.5814704E-4,2.3461878E-5,4.0665362E-4,1.4581741E-3,4.9801064E-3,0E0,2.8541917E-4,0E0,2.290383E-4,0E0,0E0,1.3458822E-4,0E0,7.4926205E-4,5.0590583E-4,1.1770292E-3,6.102156E-4,0E0,2.0691194E-5,5.13196E-5,0E0,0E0,0E0,0E0,0E0,0E0,0E0,0E0,0E0,0E0,0E0,0E0,0E0,0E0,0E0],"parents":[2147483647,0,0,1,1,2,2,3,3,4,4,5,5,6,6,7,7,8,8,9,9,10,10,12,12,14,14,17,17,19,19,20,20,21,21,22,22,24,24,25,25],"right_children":[2,4,6,8,10,12,14,16,18,20,22,-1,24,-1,26,-1,-1,28,-1,30,32,34,36,-1,38,40,-1,-1,-1,-1,-1,-1,-1,-1,-1,-1,-1,-1,-1,-1,-1],"split_conditions":[7.5177234E-1,1.1652084E-1,8.769559E-1,2.0518051E-2,3.516032E-1,2.771359E-1,2.7287462E-1,6.3764244E-1,7.1853685E-1,3.216051E-1,5.0002164E-1,-0E0,2.809717E-1,-0E0,9.266105E-1,-3.5924267E-4,-0E0,9.1712805E-4,-0E0,1.7329084E0,1.5690619E0,5.816014E-1,1.4860179E-1,-0E0,9.951927E-1,1.4435653E-1,-0E0,-0E0,-1.6386775E-4,-1.7323974E-4,-0E0,-5.8275582E-5,-0E0,-1.8074311E-6,9.892259E-5,-0E0,1.5333558E-4,1.570936E-4,-0E0,-0E0,3.3441614E-4],"split_indices":[3,3,3,3,34,30,30,5,38,30,32,0,8,0,7,0,0,29,0,25,25,24,1,0,7,7,0,0,0,0,0,0,0,0,0,0,0,0,0,0,0],"split_type":[0,0,0,0,0,0,0,0,0,0,0,0,0,0,0,0,0,0,0,0,0,0,0,0,0,0,0,0,0,0,0,0,0,0,0,0,0,0,0,0,0],"sum_hessian":[1.737E3,1.517E3,2.2E2,1.91E2,1.326E3,8.6E1,1.34E2,6.1E1,1.3E2,3.16E2,1.01E3,6E0,8E1,8E0,1.26E2,6E1,1E0,1.25E2,5E0,1.15E2,2.01E2,8.92E2,1.18E2,6E0,7.4E1,1.23E2,3E0,1E0,1.24E2,1.11E2,4E0,1.96E2,5E0,8.45E2,4.7E1,7E0,1.11E2,7.3E1,1E0,1E0,1.22E2],"tree_param":{"num_deleted":"0","num_feature":"40","num_nodes":"41","size_leaf_vector":"1"}},{"base_weights":[-0E0,-1.7637173E-3,1.2146934E-2,-1.1107611E-2,-3.8809373E-4,-0E0,1.287646E-2,-1.7328655E-2,-7.2824163E-3,-6.1307754E-3,5.501213E-4,6.405919E-3,1.5442545E-2,-3.4969128E-4,-0E0,-0E0,-8.11679E-3,-7.826321E-3,-9.503914E-4,-4.4997004E-4,4.236769E-3,6.8129688E-3,-0E0,1.5546533E-2,-0E0,-0E0,-1.645816E-4,-1.6310546E-4,-0E0,-2.8161325E-5,-0E0,-3.208493E-5,1.3952581E-5,3.8554557E-5,1.4132216E-4,-0E0,1.3975753E-4,-0E0,3.1418412E-4],"categories":[],"categories_nodes":[],"categories_segments":[],"categories_sizes":[],"default_left":[0,0,0,0,0,0,0,0,0,0,0,0,0,0,0,0,0,0,0,0,0,0,0,0,0,0,0,0,0,0,0,0,0,0,0,0,0,0,0],"id":2,"left_children":[1,3,5,7,9,-1,11,13,15,17,19,21,23,-1,-1,-1,25,27,29,31,33,35,-1,37,-1,-1,-1,-1,-1,-1,-1,-1,-1,-1,-1,-1,-1,-1,-1],"loss_changes":[3.5795566E-2,1.8113783E-2,1.6964152E-3,1.7674956E-3,7.6572625E-3,0E0,1.003813E-3,1.4523044E-5,2.8844085E-4,8.7160524E-4,4.502635E-3,2.3202179E-4,1.7722882E-4,0E0,0E0,0E0,5.728891E-5,2.494175E-4,5.033493E-5,1.2296523E-3,7.8559015E-4,6.1655184E-5,0E0,1.6234256E-4,0E0,0E0,0E0,0E0,0E0,0E0,0E0,0E0,0E0,0E0,0E0,0E0,0E0,0E0,0E0],"parents":[2147483647,0,0,1,1,2,2,3,3,4,4,6,6,7,7,8,8,9,9,10,10,11,11,12,12,16,16,17,17,18,18,19,19,20,20,21,21,23,23],"right_children":[2,4,6,8,10,-1,12,14,16,18,20,22,24,-1,-1,-1,26,28,30,32,34,36,-1,38,-1,-1,-1,-1,-1,-1,-1,-1,-1,-1,-1,-1,-1,-1,-1],"split_conditions":[7.5177234E-1,1.1652084E-1,2.431166E-1,2.0518051E-2,3.253453E-1,-0E0,8.713096E-1,5.2446145E-1,5.7127997E-3,4.6121737E-1,4.8625648E-1,4.3333334E-1,9.7824985E-1,-3.4969128E-4,-0E0,-0E0,3.9930765E-2,7.8826225E-1,4.410163E-1,4.80671E-1,6.645151E-1,3.6057672E-1,-0E0,2.7287462E-1,-0E0,-0E0,-1.645816E-4,-1.6310546E-4,-0E0,-2.8161325E-5,-0E0,-3.208493E-5,1.3952581E-5,3.8554557E-5,1.4132216E-4,-0E0,1.3975753E-4,-0E0,3.1418412E-4],"split_indices":[3,3,32,3,32,0,3,6,11,36,34,20,7,0,0,0,15,7,34,11,36,17,0,30,0,0,0,0,0,0,0,0,0,0,0,0,0,0,0],"split_type":[0,0,0,0,0,0,0,0,0,0,0,0,0,0,0,0,0,0,0,0,0,0,0,0,0,0,0,0,0,0,0,0,0,0,0,0,0,0,0],"sum_hessian":[1.708E3,1.498E3,2.1E2,1.82E2,1.316E3,1.3E1,1.97E2,5.8E1,1.24E2,1.99E2,1.117E3,6.8E1,1.29E2,5.7E1,1E0,2E1,1.04E2,1.35E2,6.4E1,8.58E2,2.59E2,6.5E1,3E0,1.28E2,1E0,2E0,1.02E2,1.28E2,7E0,5.4E1,1E1,4.71E2,3.87E2,1.63E2,9.6E1,2E0,6.3E1,2E0,1.26E2],"tree_param":{"num_deleted":"0","num_feature":"40","num_nodes":"39","size_leaf_vector":"1"}},{"base_weights":[-4.663747E-6,-1.8190331E-3,1.2350578E-2,-1.0840938E-2,-4.374388E-4,1.3675301E-3,1.3643048E-2,-1.5976781E-2,-7.7141356E-3,-5.707911E-3,6.67565E-4,-0E0,1.7808289E-3,2.960537E-3,1.489241E-2,-3.2356905E-4,-0E0,-0E0,-8.120915E-3,-7.4108103E-3,-1.2709632E-3,-0E0,7.4583907E-3,-0E0,2.1751574E-3,3.448603E-3,-0E0,-0E0,1.495424E-2,-1.6545747E-4,-0E0,-1.5928998E-4,-0E0,-3.6567468E-5,-0E0,-1.8292578E-5,2.8309638E-5,-0E0,1.5885606E-4,4.7902013E-5,-0E0,-0E0,7.329147E-5,3.001649E-4,-0E0],"categories":[],"categories_nodes":[],"categories_segments":[],"categories_sizes":[],"default_left":[0,0,0,0,0,0,0,0,0,0,0,0,0,0,0,0,0,0,0,0,0,0,0,0,0,0,0,0,0,0,0,0,0,0,0,0,0,0,0,0,0,0,0,0,0],"id":3,"left_children":[1,3,5,7,9,11,13,15,17,19,21,-1,23,25,27,-1,-1,-1,29,31,33,35,37,-1,39,41,-1,-1,43,-1,-1,-1,-1,-1,-1,-1,-1,-1,-1,-1,-1,-1,-1,-1,-1],"loss_changes":[3.7997257E-2,1.788842E-2,1.5464611E-3,6.070025E-4,8.276917E-3,3.846747E-5,6.396882E-4,1.2734625E-4,2.696002E-4,9.886557E-4,4.9110167E-3,0E0,4.362739E-5,6.692871E-5,6.610155E-5,0E0,0E0,0E0,1.7451681E-4,9.985296E-4,8.505772E-5,1.287004E-3,4.7131907E-4,0E0,1.8682898E-5,2.8049282E-5,0E0,0E0,2.7175993E-5,0E0,0E0,0E0,0E0,0E0,0E0,0E0,0E0,0E0,0E0,0E0,0E0,0E0,0E0,0E0,0E0],"parents":[2147483647,0,0,1,1,2,2,3,3,4,4,5,5,6,6,7,7,8,8,9,9,10,10,12,12,13,13,14,14,18,18,19,19,20,20,21,21,22,22,24,24,25,25,28,28],"right_children":[2,4,6,8,10,12,14,16,18,20,22,-1,24,26,28,-1,-1,-1,30,32,34,36,38,-1,40,42,-1,-1,44,-1,-1,-1,-1,-1,-1,-1,-1,-1,-1,-1,-1,-1,-1,-1,-1],"split_conditions":[7.5177234E-1,1.1652084E-1,3.2220387E-1,2.0518051E-2,3.3450636E-1,1.1011542E-2,7.982358E-1,2.2901572E-1,9.710882E-3,4.6121737E-1,5.1442426E-1,-0E0,2.2745448E-1,8.7981135E-1,2.3115294E-1,-3.2356905E-4,-0E0,-0E0,5.533703E-1,1.7329084E0,3.593509E-1,4.7503063E-1,4.057597E-1,-0E0,4.0080124E-1,3.6018607E-1,-0E0,-0E0,9.7824985E-1,-1.6545747E-4,-0E0,-1.5928998E-4,-0E0,-3.6567468E-5,-0E0,-1.8292578E-5,2.8309638E-5,-0E0,1.5885606E-4,4.7902013E-5,-0E0,-0E0,7.329147E-5,3.001649E-4,-0E0],"split_indices":[3,3,30,3,32,26,1,13,9,36,32,0,8,35,32,0,0,0,28,25,30,3,8,0,26,28,0,0,7,0,0,0,0,0,0,0,0,0,0,0,0,0,0,0,0],"split_type":[0,0,0,0,0,0,0,0,0,0,0,0,0,0,0,0,0,0,0,0,0,0,0,0,0,0,0,0,0,0,0,0,0,0,0,0,0,0,0,0,0,0,0,0,0],"sum_hessian":[1.74E3,1.525E3,2.15E2,1.92E2,1.333E3,3.1E1,1.84E2,5.9E1,1.33E2,2.46E2,1.087E3,1E0,3E1,2.8E1,1.56E2,5.8E1,1E0,9E0,1.24E2,1.61E2,8.5E1,9.91E2,9.6E1,1E0,2.9E1,2.6E1,2E0,1E0,1.55E2,1.22E2,2E0,1.55E2,6E0,6.6E1,1.9E1,6.01E2,3.9E2,4E0,9.2E1,2.7E1,2E0,1E0,2.5E1,1.54E2,1E0],"tree_param":{"num_deleted":"0","num_feature":"40","num_nodes":"45","size_leaf_vector":"1"}},{"base_weights":[-0E0,-1.7678831E-3,1.2013124E-2,-1.0848026E-2,-4.0407924E-4,7.270033E-3,1.583255E-2,-1.6597426E-2,-7.1848403E-3,-5.652683E-3,6.176762E-4,-0E0,8.068535E-3,-0E0,1.604209E-2,-1.6806081E-2,-0E0,-7.3869233E-3,-0E0,-5.9421174E-3,-0E0,-0E0,7.828024E-3,8.43778E-3,-0E0,-0E0,1.6132E-2,-3.3911946E-4,-0E0,-0E0,-1.4962102E-4,-1.2522661E-4,-0E0,-2.0221078E-5,2.9335532E-5,-0E0,1.6475577E-4,-0E0,1.7184432E-4,-0E0,3.2900166E-4],"categories":[],"categories_nodes":[],"categories_segments":[],"categories_sizes":[],"default_left":[0,0,0,0,0,0,0,0,0,0,0,0,0,0,0,0,0,0,0,0,0,0,0,0,0,0,0,0,0,0,0,0,0,0,0,0,0,0,0,0,0],"id":4,"left_children":[1,3,5,7,9,11,13,15,17,19,21,-1,23,-1,25,27,-1,29,-1,31,-1,33,35,37,-1,-1,39,-1,-1,-1,-1,-1,-1,-1,-1,-1,-1,-1,-1,-1,-1],"loss_changes":[3.6864147E-2,1.742094E-2,1.6144849E-3,1.4198925E-3,7.548334E-3,5.376921E-4,2.2666901E-4,1.4271401E-4,2.6190002E-4,5.600131E-4,4.917611E-3,0E0,3.2470468E-4,0E0,5.5078417E-5,1.6136095E-5,0E0,1.1757109E-4,0E0,4.805494E-4,0E0,1.4762769E-3,2.3343181E-4,1.0483246E-4,0E0,0E0,3.6867335E-5,0E0,0E0,0E0,0E0,0E0,0E0,0E0,0E0,0E0,0E0,0E0,0E0,0E0,0E0],"parents":[2147483647,0,0,1,1,2,2,3,3,4,4,5,5,6,6,7,7,8,8,9,9,10,10,12,12,14,14,15,15,17,17,19,19,21,21,22,22,23,23,26,26],"right_children":[2,4,6,8,10,12,14,16,18,20,22,-1,24,-1,26,28,-1,30,-1,32,-1,34,36,38,-1,-1,40,-1,-1,-1,-1,-1,-1,-1,-1,-1,-1,-1,-1,-1,-1],"split_conditions":[7.5177234E-1,1.1652084E-1,8.987728E-1,2.0518051E-2,3.2947537E-1,2.431166E-1,7.1056163E-1,1.771566E-1,7.207403E-1,1.7329084E0,5.1442426E-1,-0E0,4.3333334E-1,-0E0,8.979811E-1,6.3764244E-1,-0E0,9.1712805E-4,-0E0,8.2453316E-1,-0E0,4.3852916E-1,1.5801956E-1,3.6057672E-1,-0E0,-0E0,2.9975158E-1,-3.3911946E-4,-0E0,-0E0,-1.4962102E-4,-1.2522661E-4,-0E0,-2.0221078E-5,2.9335532E-5,-0E0,1.6475577E-4,-0E0,1.7184432E-4,-0E0,3.2900166E-4],"split_indices":[3,3,3,3,34,32,37,13,38,25,32,0,20,0,1,5,0,29,0,7,0,34,1,17,0,0,28,0,0,0,0,0,0,0,0,0,0,0,0,0,0],"split_type":[0,0,0,0,0,0,0,0,0,0,0,0,0,0,0,0,0,0,0,0,0,0,0,0,0,0,0,0,0,0,0,0,0,0,0,0,0,0,0,0,0],"sum_hessian":[1.719E3,1.497E3,2.22E2,1.85E2,1.312E3,1.12E2,1.1E2,6E1,1.25E2,2.29E2,1.083E3,1.3E1,9.9E1,2E0,1.08E2,5.9E1,1E0,1.23E2,2E0,2.23E2,6E0,9.97E2,8.6E1,9.5E1,4E0,1E0,1.07E2,5.8E1,1E0,1E0,1.22E2,2.13E2,1E1,5.95E2,4.02E2,5E0,8.1E1,2E0,9.3E1,4E0,1.03E2],"tree_param":{"num_deleted":"0","num_feature":"40","num_nodes":"41","size_leaf_vector":"1"}},{"base_weights":[-0E0,-1.6675239E-3,1.1649064E-2,-1.0726171E-2,-3.6039166E-4,5.845764E-3,1.4392334E-2,-1.5721269E-2,-7.280086E-3,-2.2568037E-3,2.528435E-3,-0E0,6.451871E-3,-0E0,1.4953449E-2,-3.182428E-4,-0E0,-7.538589E-3,-0E0,-6.1509875E-3,-9.430679E-4,1.4345242E-3,7.90976E-3,6.84887E-3,-0E0,1.5175798E-2,-0E0,-0E0,-1.5174483E-4,-1.546029E-4,-1.3447996E-5,-3.6511996E-5,3.6740003E-6,-0E0,4.250881E-5,-0E0,1.668349E-4,-0E0,1.4072584E-4,-0E0,3.0641982E-4],"categories":[],"categories_nodes":[],"categories_segments":[],"categories_sizes":[],"default_left":[0,0,0,0,0,0,0,0,0,0,0,0,0,0,0,0,0,0,0,0,0,0,0,0,0,0,0,0,0,0,0,0,0,0,0,0,0,0,0,0,0],"id":5,"left_children":[1,3,5,7,9,11,13,15,17,19,21,-1,23,-1,25,-1,-1,27,-1,29,31,33,35,37,-1,39,-1,-1,-1,-1,-1,-1,-1,-1,-1,-1,-1,-1,-1,-1,-1],"loss_changes":[3.410296E-2,1.6980296E-2,1.39446E-3,7.3548965E-4,7.352478E-3,3.3472246E-4,4.6704896E-4,1.2115389E-4,2.4002092E-4,3.551478E-3,2.0740968E-3,0E0,2.1896139E-4,0E0,1.7328002E-4,0E0,0E0,2.9270537E-5,0E0,8.0699474E-4,8.049245E-4,5.791425E-4,2.2011064E-4,4.1446183E-5,0E0,8.8455155E-5,0E0,0E0,0E0,0E0,0E0,0E0,0E0,0E0,0E0,0E0,0E0,0E0,0E0,0E0,0E0],"parents":[2147483647,0,0,1,1,2,2,3,3,4,4,5,5,6,6,7,7,8,8,9,9,10,10,12,12,14,14,17,17,19,19,20,20,21,21,22,22,23,23,25,25],"right_children":[2,4,6,8,10,12,14,16,18,20,22,-1,24,-1,26,-1,-1,28,-1,30,32,34,36,38,-1,40,-1,-1,-1,-1,-1,-1,-1,-1,-1,-1,-1,-1,-1,-1,-1],"split_conditions":[7.5177234E-1,1.1652084E-1,8.769559E-1,2.0518051E-2,4.11045E-1,2.771359E-1,2.7287462E-1,2.2901572E-1,7.454441E-1,3.2972983E-1,5.022846E-1,-0E0,4.3333334E-1,-0E0,9.4983387E-1,-3.182428E-4,-0E0,1.5988652E-1,-0E0,4.8012584E-1,4.90103E-1,4.9252883E-1,1.5801956E-1,3.6057672E-1,-0E0,1.4435653E-1,-0E0,-0E0,-1.5174483E-4,-1.546029E-4,-1.3447996E-5,-3.6511996E-5,3.6740003E-6,-0E0,4.250881E-5,-0E0,1.668349E-4,-0E0,1.4072584E-4,-0E0,3.0641982E-4],"split_indices":[3,3,3,3,32,30,30,13,5,30,30,0,20,0,7,0,0,16,0,36,3,36,1,17,0,7,0,0,0,0,0,0,0,0,0,0,0,0,0,0,0],"split_type":[0,0,0,0,0,0,0,0,0,0,0,0,0,0,0,0,0,0,0,0,0,0,0,0,0,0,0,0,0,0,0,0,0,0,0,0,0,0,0,0,0],"sum_hessian":[1.746E3,1.527E3,2.19E2,1.82E2,1.345E3,8.3E1,1.36E2,6.1E1,1.21E2,8.33E2,5.12E2,7E0,7.6E1,8E0,1.28E2,6E1,1E0,1.17E2,4E0,1.9E2,6.43E2,4.42E2,7E1,7.2E1,4E0,1.25E2,3E0,1E0,1.16E2,1.33E2,5.7E1,4.1E2,2.33E2,1.13E2,3.29E2,4E0,6.6E1,3E0,6.9E1,2E0,1.23E2],"tree_param":{"num_deleted":"0","num_feature":"40","num_nodes":"41","size_leaf_vector":"1"}},{"base_weights":[-0E0,-1.6928468E-3,1.16952E-2,-1.0248748E-2,-4.0538752E-4,6.9131753E-3,1.5452498E-2,-1.4835158E-2,-6.4448435E-3,-2.0390465E-3,2.9441442E-3,-0E0,7.6539484E-3,-0E0,1.564708E-2,-2.9969122E-4,-0E0,-0E0,-7.2467173E-3,-6.40504E-3,-9.984865E-4,1.342346E-3,7.0818346E-3,-0E0,8.128551E-3,-0E0,1.5734961E-2,-1.4802221E-4,-0E0,-1.4347749E-4,-0E0,-2.9172907E-5,6.2332365E-5,-0E0,5.2188643E-5,-0E0,1.596693E-4,1.6388451E-4,-0E0,3.164509E-4,-0E0],"categories":[],"categories_nodes":[],"categories_segments":[],"categories_sizes":[],"default_left":[0,0,0,0,0,0,0,0,0,0,0,0,0,0,0,0,0,0,0,0,0,0,0,0,0,0,0,0,0,0,0,0,0,0,0,0,0,0,0,0,0],"id":6,"left_children":[1,3,5,7,9,11,13,15,17,19,21,-1,23,-1,25,-1,-1,-1,27,29,31,33,35,-1,37,-1,39,-1,-1,-1,-1,-1,-1,-1,-1,-1,-1,-1,-1,-1,-1],"loss_changes":[3.4045268E-2,1.5706846E-2,1.5555508E-3,1.073733E-3,7.2206035E-3,4.7321664E-4,1.6994588E-4,1.0068901E-4,3.3926312E-4,3.4237977E-3,1.918473E-3,0E0,4.6227733E-4,0E0,4.7506765E-5,0E0,0E0,0E0,1.6911514E-4,8.260794E-4,1.2797797E-3,4.9242884E-4,6.436589E-4,0E0,3.2549724E-5,0E0,4.2619184E-5,0E0,0E0,0E0,0E0,0E0,0E0,0E0,0E0,0E0,0E0,0E0,0E0,0E0,0E0],"parents":[2147483647,0,0,1,1,2,2,3,3,4,4,5,5,6,6,7,7,8,8,9,9,10,10,12,12,14,14,18,18,19,19,20,20,21,21,22,22,24,24,26,26],"right_children":[2,4,6,8,10,12,14,16,18,20,22,-1,24,-1,26,-1,-1,-1,28,30,32,34,36,-1,38,-1,40,-1,-1,-1,-1,-1,-1,-1,-1,-1,-1,-1,-1,-1,-1],"split_conditions":[7.5177234E-1,1.1652084E-1,8.987728E-1,4.0341314E-2,4.2102814E-1,2.431166E-1,1.8496317E-1,8.438431E-1,5.7127997E-3,3.076764E-1,5.1442426E-1,-0E0,2.809717E-1,-0E0,8.979811E-1,-2.9969122E-4,-0E0,-0E0,6.6292423E-1,1.0425973E0,6.9140154E-1,4.1626108E-1,1.7012747E-1,-0E0,9.951927E-1,-0E0,9.7630674E-1,-1.4802221E-4,-0E0,-1.4347749E-4,-0E0,-2.9172907E-5,6.2332365E-5,-0E0,5.2188643E-5,-0E0,1.596693E-4,1.6388451E-4,-0E0,3.164509E-4,-0E0],"split_indices":[3,3,3,3,32,32,32,15,11,32,32,0,8,0,1,0,0,0,6,4,8,3,1,0,7,0,5,0,0,0,0,0,0,0,0,0,0,0,0,0,0],"split_type":[0,0,0,0,0,0,0,0,0,0,0,0,0,0,0,0,0,0,0,0,0,0,0,0,0,0,0,0,0,0,0,0,0,0,0,0,0,0,0,0,0],"sum_hessian":[1.738E3,1.522E3,2.16E2,1.88E2,1.334E3,1.08E2,1.08E2,7.2E1,1.16E2,9.17E2,4.17E2,1.2E1,9.6E1,2E0,1.06E2,7.1E1,1E0,1.8E1,9.8E1,1.57E2,7.6E2,3.19E2,9.8E1,4E0,9.2E1,1E0,1.05E2,9.7E1,1E0,1.41E2,1.6E1,7.06E2,5.4E1,1.63E2,1.56E2,1.1E1,8.7E1,9.1E1,1E0,1.04E2,1E0],"tree_param":{"num_deleted":"0","num_feature":"40","num_nodes":"41","size_leaf_vector":"1"}},{"base_weights":[5.2542146E-6,-1.5691167E-3,1.14088105E-2,-1.01319095E-2,-2.8749453E-4,4.3625063E-3,1.3398908E-2,-1.0430323E-2,-0E0,-1.902474E-3,2.8984654E-3,-0E0,5.0572143E-3,1.3747598E-2,-0E0,-1.1200477E-2,-0E0,-5.5476027E-3,-6.686482E-4,1.5385975E-3,7.750962E-3,-0E0,5.6668273E-3,-0E0,1.390991E-2,-0E0,-2.2518994E-4,-1.4266322E-4,-1.5097885E-5,-2.150455E-5,5.4781358E-5,-0E0,4.4489072E-5,-0E0,1.6267001E-4,-0E0,1.1647147E-4,-0E0,2.80283E-4],"categories":[],"categories_nodes":[],"categories_segments":[],"categories_sizes":[],"default_left":[0,0,0,0,0,0,0,0,0,0,0,0,0,0,0,0,0,0,0,0,0,0,0,0,0,0,0,0,0,0,0,0,0,0,0,0,0,0,0],"id":7,"left_children":[1,3,5,7,9,11,13,15,-1,17,19,-1,21,23,-1,25,-1,27,29,31,33,-1,35,-1,37,-1,-1,-1,-1,-1,-1,-1,-1,-1,-1,-1,-1,-1,-1],"loss_changes":[3.2402415E-2,1.5745774E-2,1.2504291E-3,5.069617E-4,6.8108537E-3,2.7130416E-4,3.8053468E-4,4.1414239E-4,0E0,3.4763438E-3,1.9031812E-3,0E0,1.734232E-4,3.0435808E-4,0E0,8.797087E-5,0E0,8.0162473E-4,8.1057235E-4,5.2273547E-4,2.0934548E-4,0E0,2.222578E-5,0E0,4.965253E-5,0E0,0E0,0E0,0E0,0E0,0E0,0E0,0E0,0E0,0E0,0E0,0E0,0E0,0E0],"parents":[2147483647,0,0,1,1,2,2,3,3,4,4,5,5,6,6,7,7,9,9,10,10,12,12,13,13,15,15,17,17,18,18,19,19,20,20,22,22,24,24],"right_children":[2,4,6,8,10,12,14,16,-1,18,20,-1,22,24,-1,26,-1,28,30,32,34,-1,36,-1,38,-1,-1,-1,-1,-1,-1,-1,-1,-1,-1,-1,-1,-1,-1],"split_conditions":[7.5177234E-1,1.1652084E-1,8.564401E-1,7.248793E-1,4.1863528E-1,2.771359E-1,9.4983387E-1,1E0,-0E0,3.3607522E-1,5.022846E-1,-0E0,3.237473E-1,1.7734757E-1,-0E0,1.5988652E-1,-0E0,4.8012584E-1,6.9140154E-1,2.4927999E-1,1.5801956E-1,-0E0,8.695652E-2,-0E0,1.4435653E-1,-0E0,-2.2518994E-4,-1.4266322E-4,-1.5097885E-5,-2.150455E-5,5.4781358E-5,-0E0,4.4489072E-5,-0E0,1.6267001E-4,-0E0,1.1647147E-4,-0E0,2.80283E-4],"split_indices":[3,3,3,5,32,30,7,20,0,30,30,0,36,30,0,16,0,36,8,1,1,0,19,0,7,0,0,0,0,0,0,0,0,0,0,0,0,0,0],"split_type":[0,0,0,0,0,0,0,0,0,0,0,0,0,0,0,0,0,0,0,0,0,0,0,0,0,0,0,0,0,0,0,0,0,0,0,0,0,0,0],"sum_hessian":[1.748E3,1.529E3,2.19E2,1.88E2,1.341E3,6E1,1.59E2,1.82E2,6E0,9.11E2,4.3E2,5E0,5.5E1,1.53E2,6E0,1.61E2,2.1E1,2.09E2,7.02E2,3.53E2,7.7E1,6E0,4.9E1,2E0,1.51E2,1E0,1.6E2,1.41E2,6.8E1,6.54E2,4.8E1,7.9E1,2.74E2,4E0,7.3E1,2E0,4.7E1,2E0,1.49E2],"tree_param":{"num_deleted":"0","num_feature":"40","num_nodes":"39","size_leaf_vector":"1"}},{"base_weights":[-0E0,-1.6366567E-3,1.11827785E-2,-1.0001704E-2,-3.415739E-4,-0E0,1.18736E-2,-1.5064086E-2,-6.5854043E-3,-2.9364103E-3,1.6241673E-3,6.179283E-3,1.405586E-2,-1.5236565E-2,-0E0,-6.852179E-3,-0E0,-5.3545996E-3,-7.437684E-4,6.8569207E-4,7.4332603E-3,-0E0,6.4483713E-3,-0E0,1.4202046E-2,-3.0726794E-4,-0E0,-0E0,-1.3885627E-4,-1.1253515E-4,-0E0,-2.9871318E-5,1.2752171E-6,-2.1999384E-7,4.3649627E-5,-0E0,1.6122837E-4,-0E0,1.3085941E-4,2.8797623E-4,-0E0],"categories":[],"categories_nodes":[],"categories_segments":[],"categories_sizes":[],"default_left":[0,0,0,0,0,0,0,0,0,0,0,0,0,0,0,0,0,0,0,0,0,0,0,0,0,0,0,0,0,0,0,0,0,0,0,0,0,0,0,0,0],"id":8,"left_children":[1,3,5,7,9,-1,11,13,15,17,19,21,23,25,-1,27,-1,29,31,33,35,-1,37,-1,39,-1,-1,-1,-1,-1,-1,-1,-1,-1,-1,-1,-1,-1,-1,-1,-1],"loss_changes":[3.1365577E-2,1.5559068E-2,1.4985129E-3,1.1082981E-3,6.9608325E-3,0E0,4.246328E-4,1.12777576E-4,3.2516802E-4,2.5622128E-3,3.2172585E-3,7.492863E-5,1.501441E-4,1.6237609E-5,0E0,1.1058524E-4,0E0,5.6439545E-4,3.471237E-4,8.9812104E-4,3.3662142E-4,0E0,3.9530685E-5,0E0,1.2087822E-4,0E0,0E0,0E0,0E0,0E0,0E0,0E0,0E0,0E0,0E0,0E0,0E0,0E0,0E0,0E0,0E0],"parents":[2147483647,0,0,1,1,2,2,3,3,4,4,6,6,7,7,8,8,9,9,10,10,11,11,12,12,13,13,15,15,17,17,18,18,19,19,20,20,22,22,24,24],"right_children":[2,4,6,8,10,-1,12,14,16,18,20,22,24,26,-1,28,-1,30,32,34,36,-1,38,-1,40,-1,-1,-1,-1,-1,-1,-1,-1,-1,-1,-1,-1,-1,-1,-1,-1],"split_conditions":[7.5177234E-1,1.1652084E-1,2.431166E-1,2.0518051E-2,3.8342205E-1,-0E0,8.713096E-1,2.2901572E-1,7.207403E-1,4.8012584E-1,5.1442426E-1,3.237473E-1,2.7287462E-1,6.3764244E-1,-0E0,9.1712805E-4,-0E0,6.643427E-1,6.376144E-1,4.7503063E-1,1.7012747E-1,-0E0,2.809717E-1,-0E0,9.492627E-1,-3.0726794E-4,-0E0,-0E0,-1.3885627E-4,-1.1253515E-4,-0E0,-2.9871318E-5,1.2752171E-6,-2.1999384E-7,4.3649627E-5,-0E0,1.6122837E-4,-0E0,1.3085941E-4,2.8797623E-4,-0E0],"split_indices":[3,3,32,3,30,0,3,13,38,36,32,36,30,5,0,29,0,8,38,3,1,0,8,0,6,0,0,0,0,0,0,0,0,0,0,0,0,0,0,0,0],"split_type":[0,0,0,0,0,0,0,0,0,0,0,0,0,0,0,0,0,0,0,0,0,0,0,0,0,0,0,0,0,0,0,0,0,0,0,0,0,0,0,0,0],"sum_hessian":[1.748E3,1.531E3,2.17E2,1.94E2,1.337E3,1.4E1,2.03E2,6.5E1,1.29E2,5.98E2,7.39E2,7E1,1.33E2,6.4E1,1E0,1.26E2,3E0,2.62E2,3.36E2,6.52E2,8.7E1,4E0,6.6E1,2E0,1.31E2,6.3E1,1E0,1E0,1.25E2,2.55E2,7E0,2.38E2,9.8E1,4E2,2.52E2,8E0,7.9E1,1E0,6.5E1,1.28E2,3E0],"tree_param":{"num_deleted":"0","num_feature":"40","num_nodes":"41","size_leaf_vector":"1"}},{"base_weights":[-0E0,-1.5799551E-3,1.0981459E-2,-9.808458E-3,-3.7212466E-4,-0E0,1.1996032E-2,-1.4756454E-2,-6.50205E-3,-2.754954E-3,1.5698281E-3,3.6044107E-3,1.3297198E-2,-1.4941259E-2,-0E0,-6.839677E-3,-0E0,-5.027626E-3,-7.146574E-4,6.5106066E-4,7.033823E-3,-0E0,4.0194658E-3,1.3417552E-2,-0E0,-3.015224E-4,-0E0,-0E0,-1.3874353E-4,-1.360029E-4,-2.7927388E-5,-2.9429088E-5,7.1314375E-6,-1.0765818E-6,4.3798023E-5,-0E0,1.4878914E-4,-0E0,8.427127E-5,-0E0,2.7060887E-4],"categories":[],"categories_nodes":[],"categories_segments":[],"categories_sizes":[],"default_left":[0,0,0,0,0,0,0,0,0,0,0,0,0,0,0,0,0,0,0,0,0,0,0,0,0,0,0,0,0,0,0,0,0,0,0,0,0,0,0,0,0],"id":9,"left_children":[1,3,5,7,9,-1,11,13,15,17,19,21,23,25,-1,27,-1,29,31,33,35,-1,37,39,-1,-1,-1,-1,-1,-1,-1,-1,-1,-1,-1,-1,-1,-1,-1,-1,-1],"loss_changes":[3.052839E-2,1.3935939E-2,1.433814E-3,7.5574033E-4,6.2494385E-3,0E0,4.0201098E-4,1.0605622E-4,3.2015145E-4,2.287798E-3,2.7761715E-3,8.7932334E-5,1.5115924E-4,1.15558505E-5,0E0,1.1037756E-4,0E0,9.022644E-4,3.9575898E-4,8.8841654E-4,2.8351182E-4,0E0,3.9774284E-5,1.11481175E-4,0E0,0E0,0E0,0E0,0E0,0E0,0E0,0E0,0E0,0E0,0E0,0E0,0E0,0E0,0E0,0E0,0E0],"parents":[2147483647,0,0,1,1,2,2,3,3,4,4,6,6,7,7,8,8,9,9,10,10,11,11,12,12,13,13,15,15,17,17,18,18,19,19,20,20,22,22,23,23],"right_children":[2,4,6,8,10,-1,12,14,16,18,20,22,24,26,-1,28,-1,30,32,34,36,-1,38,40,-1,-1,-1,-1,-1,-1,-1,-1,-1,-1,-1,-1,-1,-1,-1,-1,-1],"split_conditions":[7.5177234E-1,1.0936123E-1,3.145319E-1,2.0518051E-2,3.8488021E-1,-0E0,8.246404E-1,2.2901572E-1,7.1853685E-1,4.8012584E-1,5.1740557E-1,3.237473E-1,9.7824985E-1,6.3764244E-1,-0E0,9.1712805E-4,-0E0,3.444695E-1,6.5182465E-1,4.7503063E-1,1.4860179E-1,-0E0,3.6018607E-1,1.9085906E-1,-0E0,-3.015224E-4,-0E0,-0E0,-1.3874353E-4,-1.360029E-4,-2.7927388E-5,-2.9429088E-5,7.1314375E-6,-1.0765818E-6,4.3798023E-5,-0E0,1.4878914E-4,-0E0,8.427127E-5,-0E0,2.7060887E-4],"split_indices":[3,3,30,3,30,0,3,13,38,36,32,36,7,5,0,29,0,30,38,3,1,0,28,34,0,0,0,0,0,0,0,0,0,0,0,0,0,0,0,0,0],"split_type":[0,0,0,0,0,0,0,0,0,0,0,0,0,0,0,0,0,0,0,0,0,0,0,0,0,0,0,0,0,0,0,0,0,0,0,0,0,0,0,0,0],"sum_hessian":[1.725E3,1.504E3,2.21E2,1.81E2,1.323E3,2.6E1,1.95E2,5.9E1,1.22E2,6.17E2,7.06E2,3.7E1,1.58E2,5.8E1,1E0,1.17E2,5E0,2.68E2,3.49E2,6.21E2,8.5E1,2E0,3.5E1,1.56E2,2E0,5.7E1,1E0,1E0,1.16E2,1.61E2,1.07E2,2.59E2,9E1,3.82E2,2.39E2,4E0,8.1E1,1E0,3.4E1,2E0,1.54E2],"tree_param":{"num_deleted":"0","num_feature":"40","num_nodes":"41","size_leaf_vector":"1"}},{"base_weights":[-6.0348575E-5,-1.7289505E-3,1.0950183E-2,-9.685742E-3,-4.1836707E-4,4.1728965E-3,1.27982255E-2,-1.47491135E-2,-6.445827E-3,-5.3366013E-3,4.7104032E-4,4.92001E-3,-0E0,-0E0,1.2942356E-2,-1.4916747E-2,-0E0,-6.695541E-3,-0E0,-6.0705487E-3,-0E0,7.174701E-5,1.121706E-2,-0E0,5.271474E-3,1.319812E-2,-0E0,-3.0077167E-4,-0E0,-0E0,-1.3560454E-4,-1.2727651E-4,-0E0,-1.11328945E-5,8.006038E-5,-0E0,2.6045405E-4,1.06830434E-4,-0E0,-0E0,2.659928E-4],"categories":[],"categories_nodes":[],"categories_segments":[],"categories_sizes":[],"default_left":[0,0,0,0,0,0,0,0,0,0,0,0,0,0,0,0,0,0,0,0,0,0,0,0,0,0,0,0,0,0,0,0,0,0,0,0,0,0,0,0,0],"id":10,"left_children":[1,3,5,7,9,11,13,15,17,19,21,23,-1,-1,25,27,-1,29,-1,31,-1,33,35,-1,37,39,-1,-1,-1,-1,-1,-1,-1,-1,-1,-1,-1,-1,-1,-1,-1],"loss_changes":[3.0752096E-2,1.46797355E-2,9.923931E-4,1.0992251E-3,6.193175E-3,2.1395413E-4,2.585966E-4,1.05706975E-4,3.1508598E-4,1.0428941E-3,3.5387194E-3,1.3068377E-4,0E0,0E0,1.8539652E-4,1.10678375E-5,0E0,1.06950756E-4,0E0,5.1226513E-4,0E0,2.9629972E-3,4.6509667E-4,0E0,8.638948E-6,5.7823956E-5,0E0,0E0,0E0,0E0,0E0,0E0,0E0,0E0,0E0,0E0,0E0,0E0,0E0,0E0,0E0],"parents":[2147483647,0,0,1,1,2,2,3,3,4,4,5,5,6,6,7,7,8,8,9,9,10,10,11,11,14,14,15,15,17,17,19,19,21,21,22,22,24,24,25,25],"right_children":[2,4,6,8,10,12,14,16,18,20,22,24,-1,-1,26,28,-1,30,-1,32,-1,34,36,-1,38,40,-1,-1,-1,-1,-1,-1,-1,-1,-1,-1,-1,-1,-1,-1,-1],"split_conditions":[7.5177234E-1,1.1652084E-1,8.564401E-1,2.0518051E-2,3.3607522E-1,9.8398924E-1,1.7734757E-1,2.2901572E-1,7.207403E-1,6.035311E-1,1.1066045E0,3.237473E-1,-0E0,-0E0,9.4983387E-1,5.745929E-1,-0E0,9.1712805E-4,-0E0,1.7329084E0,-0E0,7.151318E-1,2.0906326E-1,-0E0,9.951927E-1,1.4435653E-1,-0E0,-3.0077167E-4,-0E0,-0E0,-1.3560454E-4,-1.2727651E-4,-0E0,-1.11328945E-5,8.006038E-5,-0E0,2.6045405E-4,1.06830434E-4,-0E0,-0E0,2.659928E-4],"split_indices":[3,3,3,3,30,14,30,13,38,36,12,36,0,0,7,5,0,29,0,25,0,38,33,0,7,7,0,0,0,0,0,0,0,0,0,0,0,0,0,0,0],"split_type":[0,0,0,0,0,0,0,0,0,0,0,0,0,0,0,0,0,0,0,0,0,0,0,0,0,0,0,0,0,0,0,0,0,0,0,0,0,0,0,0,0],"sum_hessian":[1.722E3,1.504E3,2.18E2,2.01E2,1.303E3,5.9E1,1.59E2,6.5E1,1.36E2,2.16E2,1.087E3,5.1E1,8E0,2E0,1.57E2,6.4E1,1E0,1.33E2,3E0,1.95E2,2.1E1,1.058E3,2.9E1,2E0,4.9E1,1.52E2,5E0,6.3E1,1E0,1E0,1.32E2,1.9E2,5E0,8.91E2,1.67E2,5E0,2.4E1,4.8E1,1E0,2E0,1.5E2],"tree_param":{"num_deleted":"0","num_feature":"40","num_nodes":"41","size_leaf_vector":"1"}},{"base_weights":[-0E0,-1.5888197E-3,1.0863225E-2,-1.0640137E-2,-4.806351E-4,-0E0,1.1443087E-2,-1.0797972E-2,-0E0,-6.360565E-3,2.2260417E-4,5.682788E-3,1.3362635E-2,-1.0946325E-2,-0E0,-6.696437E-3,-0E0,-1.7984032E-4,7.1744723E-3,-0E0,5.7664462E-3,1.34467995E-2,-0E0,-2.1991254E-4,-0E0,-1.4378695E-4,-0E0,-2.2622282E-5,2.6866383E-5,-0E0,1.5740417E-4,1.16556206E-4,-0E0,-0E0,2.7153787E-4],"categories":[],"categories_nodes":[],"categories_segments":[],"categories_sizes":[],"default_left":[0,0,0,0,0,0,0,0,0,0,0,0,0,0,0,0,0,0,0,0,0,0,0,0,0,0,0,0,0,0,0,0,0,0,0],"id":11,"left_children":[1,3,5,7,9,-1,11,13,-1,15,17,19,21,23,-1,25,-1,27,29,-1,31,33,-1,-1,-1,-1,-1,-1,-1,-1,-1,-1,-1,-1,-1],"loss_changes":[2.970637E-2,1.4229519E-2,9.994507E-4,2.9804744E-4,6.296698E-3,0E0,2.86242E-4,2.6036054E-4,0E0,5.3107925E-4,4.0944135E-3,2.9964605E-5,1.3508275E-4,4.460849E-5,0E0,5.1286956E-4,0E0,1.6233989E-3,3.418494E-4,0E0,1.2282515E-5,1.2000464E-4,0E0,0E0,0E0,0E0,0E0,0E0,0E0,0E0,0E0,0E0,0E0,0E0,0E0],"parents":[2147483647,0,0,1,1,2,2,3,3,4,4,6,6,7,7,9,9,10,10,11,11,12,12,13,13,15,15,17,17,18,18,20,20,21,21],"right_children":[2,4,6,8,10,-1,12,14,-1,16,18,20,22,24,-1,26,-1,28,30,-1,32,34,-1,-1,-1,-1,-1,-1,-1,-1,-1,-1,-1,-1,-1],"split_conditions":[7.5177234E-1,8.481304E-2,2.771359E-1,8.571751E-2,3.076764E-1,-0E0,8.713096E-1,7.248793E-1,-0E0,1.7329084E0,4.9808058E-1,1.4028296E-2,9.7824985E-1,6.4359134E-1,-0E0,5.71361E-1,-0E0,4.90103E-1,1.7012747E-1,-0E0,9.951927E-1,1.9085906E-1,-0E0,-2.1991254E-4,-0E0,-1.4378695E-4,-0E0,-2.2622282E-5,2.6866383E-5,-0E0,1.5740417E-4,1.16556206E-4,-0E0,-0E0,2.7153787E-4],"split_indices":[3,3,30,2,32,0,3,5,0,25,30,26,7,34,0,36,0,3,1,0,7,34,0,0,0,0,0,0,0,0,0,0,0,0,0],"split_type":[0,0,0,0,0,0,0,0,0,0,0,0,0,0,0,0,0,0,0,0,0,0,0,0,0,0,0,0,0,0,0,0,0,0,0],"sum_hessian":[1.747E3,1.529E3,2.18E2,1.56E2,1.373E3,1.4E1,2.04E2,1.54E2,2E0,1.61E2,1.212E3,6.5E1,1.39E2,1.52E2,2E0,1.57E2,4E0,1.133E3,7.9E1,1E0,6.4E1,1.38E2,1E0,1.51E2,1E0,1.46E2,1.1E1,7.38E2,3.95E2,8E0,7.1E1,6.3E1,1E0,2E0,1.36E2],"tree_param":{"num_deleted":"0","num_feature":"40","num_nodes":"35","size_leaf_vector":"1"}},{"base_weights":[-4.660384E-6,-1.5263773E-3,1.0425864E-2,-9.217108E-3,-2.9117498E-4,-0E0,1.1175E-2,-1.3511236E-2,-5.801247E-3,-3.4476833E-3,9.0704934E-4,-0E0,1.1385852E-2,-2.7468798E-4,-0E0,-0E0,-6.587541E-3,-4.1743717E-3,8.088924E-3,-0E0,4.02045E-3,1.1468533E-2,-0E0,-0E0,-1.3379838E-4,-1.2945433E-4,-3.305648E-5,-0E0,2.0979384E-4,-6.1892774E-6,5.3711694E-5,-0E0,8.771486E-5,-0E0,2.3078722E-4],"categories":[],"categories_nodes":[],"categories_segments":[],"categories_sizes":[],"default_left":[0,0,0,0,0,0,0,0,0,0,0,0,0,0,0,0,0,0,0,0,0,0,0,0,0,0,0,0,0,0,0,0,0,0,0],"id":12,"left_children":[1,3,5,7,9,-1,11,13,15,17,19,-1,21,-1,-1,-1,23,25,27,29,31,33,-1,-1,-1,-1,-1,-1,-1,-1,-1,-1,-1,-1,-1],"loss_changes":[2.6458073E-2,1.3409894E-2,9.167902E-4,8.94662E-4,5.23079E-3,0E0,3.900323E-4,7.26711E-5,3.4973957E-4,2.869966E-3,2.4021782E-3,0E0,9.031035E-5,0E0,0E0,0E0,5.3218566E-5,1.3268357E-3,2.2890966E-4,7.466578E-4,3.710452E-4,3.5163015E-5,0E0,0E0,0E0,0E0,0E0,0E0,0E0,0E0,0E0,0E0,0E0,0E0,0E0],"parents":[2147483647,0,0,1,1,2,2,3,3,4,4,6,6,7,7,8,8,9,9,10,10,12,12,16,16,17,17,18,18,19,19,20,20,21,21],"right_children":[2,4,6,8,10,-1,12,14,16,18,20,-1,22,-1,-1,-1,24,26,28,30,32,34,-1,-1,-1,-1,-1,-1,-1,-1,-1,-1,-1,-1,-1],"split_conditions":[7.5177234E-1,1.1652084E-1,2.995991E-1,4.0341314E-2,4.6121737E-1,-0E0,3.1885034E-1,2.5117257E-1,5.7127997E-3,1.7329084E0,4.5506474E-1,-0E0,6.465305E-1,-2.7468798E-4,-0E0,-0E0,3.9930765E-2,3.6323336E-1,1.7391305E-1,4.1702375E-1,1.7012747E-1,2.4024305E-1,-0E0,-0E0,-1.3379838E-4,-1.2945433E-4,-3.305648E-5,-0E0,2.0979384E-4,-6.1892774E-6,5.3711694E-5,-0E0,8.771486E-5,-0E0,2.3078722E-4],"split_indices":[3,3,30,3,36,0,8,13,11,25,32,0,15,0,0,0,15,30,19,24,1,32,0,0,0,0,0,0,0,0,0,0,0,0,0],"split_type":[0,0,0,0,0,0,0,0,0,0,0,0,0,0,0,0,0,0,0,0,0,0,0,0,0,0,0,0,0,0,0,0,0,0,0],"sum_hessian":[1.721E3,1.511E3,2.1E2,1.97E2,1.314E3,2E1,1.9E2,7.3E1,1.24E2,3.84E2,9.3E2,4E0,1.86E2,7.1E1,2E0,2E1,1.04E2,3.7E2,1.4E1,7.35E2,1.95E2,1.84E2,2E0,2E0,1.02E2,1.72E2,1.98E2,4E0,1E1,6.41E2,9.4E1,1.2E1,1.83E2,2E0,1.82E2],"tree_param":{"num_deleted":"0","num_feature":"40","num_nodes":"35","size_leaf_vector":"1"}},{"base_weights":[-1.0211901E-5,-1.542489E-3,1.024516E-2,-9.220734E-3,-2.865369E-4,5.129273E-3,1.2705766E-2,-1.3823198E-2,-6.19475E-3,-1.8754641E-3,2.2815003E-3,-0E0,5.3890636E-3,1.304833E-2,-0E0,-1.4086647E-2,-0E0,-6.4370343E-3,-0E0,-5.2745896E-3,-7.4257184E-4,9.151334E-4,5.2933088E-3,-0E0,5.9523904E-3,1.3109492E-2,-0E0,-2.8635474E-4,-0E0,-0E0,-1.3041601E-4,-1.17558324E-4,-0E0,-2.1881075E-5,1.6671554E-4,-0E0,6.008413E-5,-0E0,1.0956676E-4,1.2277099E-4,-0E0,-0E0,2.634243E-4],"categories":[],"categories_nodes":[],"categories_segments":[],"categories_sizes":[],"default_left":[0,0,0,0,0,0,0,0,0,0,0,0,0,0,0,0,0,0,0,0,0,0,0,0,0,0,0,0,0,0,0,0,0,0,0,0,0,0,0,0,0,0,0],"id":13,"left_children":[1,3,5,7,9,11,13,15,17,19,21,-1,23,25,-1,27,-1,29,-1,31,33,35,37,-1,39,41,-1,-1,-1,-1,-1,-1,-1,-1,-1,-1,-1,-1,-1,-1,-1,-1,-1],"loss_changes":[2.6629448E-2,1.3810842E-2,9.0813823E-4,7.536784E-4,5.3824787E-3,1.7691636E-4,3.3091195E-4,9.5771626E-5,2.9804092E-4,2.6483298E-3,1.3660854E-3,0E0,1.8236181E-4,3.4524128E-5,0E0,1.6665086E-5,0E0,1.0401197E-4,0E0,7.534567E-4,1.3813524E-3,5.8549864E-4,7.504062E-5,0E0,9.1198366E-5,3.4149736E-5,0E0,0E0,0E0,0E0,0E0,0E0,0E0,0E0,0E0,0E0,0E0,0E0,0E0,0E0,0E0,0E0,0E0],"parents":[2147483647,0,0,1,1,2,2,3,3,4,4,5,5,6,6,7,7,8,8,9,9,10,10,12,12,13,13,15,15,17,17,19,19,20,20,21,21,22,22,24,24,25,25],"right_children":[2,4,6,8,10,12,14,16,18,20,22,-1,24,26,-1,28,-1,30,-1,32,34,36,38,-1,40,42,-1,-1,-1,-1,-1,-1,-1,-1,-1,-1,-1,-1,-1,-1,-1,-1,-1],"split_conditions":[7.5177234E-1,1.1652084E-1,8.769559E-1,2.0518051E-2,4.3852916E-1,2.5817776E-1,9.4983387E-1,2.0065477E-1,7.207403E-1,3.253453E-1,6.613741E-1,-0E0,3.1885034E-1,9.6442944E-1,-0E0,5.745929E-1,-0E0,9.1712805E-4,-0E0,1.0425973E0,1.7329084E0,5.13582E-1,5.0240946E-1,-0E0,3.5855615E-1,1.4435653E-1,-0E0,-2.8635474E-4,-0E0,-0E0,-1.3041601E-4,-1.17558324E-4,-0E0,-2.1881075E-5,1.6671554E-4,-0E0,6.008413E-5,-0E0,1.0956676E-4,1.2277099E-4,-0E0,-0E0,2.634243E-4],"split_indices":[3,3,3,3,34,28,7,13,38,32,36,0,8,6,0,5,0,29,0,4,25,37,38,0,26,7,0,0,0,0,0,0,0,0,0,0,0,0,0,0,0,0,0],"split_type":[0,0,0,0,0,0,0,0,0,0,0,0,0,0,0,0,0,0,0,0,0,0,0,0,0,0,0,0,0,0,0,0,0,0,0,0,0,0,0,0,0,0,0],"sum_hessian":[1.748E3,1.53E3,2.18E2,2.03E2,1.327E3,8.5E1,1.33E2,6.6E1,1.37E2,8.44E2,4.83E2,2E0,8.3E1,1.28E2,5E0,6.4E1,2E0,1.34E2,3E0,1.88E2,6.56E2,3.56E2,1.27E2,1E1,7.3E1,1.27E2,1E0,6.2E1,2E0,1E0,1.33E2,1.73E2,1.5E1,6.43E2,1.3E1,2.59E2,9.7E1,6E0,1.21E2,7.1E1,2E0,1E0,1.26E2],"tree_param":{"num_deleted":"0","num_feature":"40","num_nodes":"43","size_leaf_vector":"1"}},{"base_weights":[4.7087986E-5,-1.2813868E-3,1.139352E-2,-8.961885E-3,-1.3847621E-4,-0E0,1.1798211E-2,-1.2723513E-2,-5.593865E-3,-1.7894303E-3,2.5214371E-3,1.1854852E-2,-0E0,-2.5853215E-4,-0E0,-0E0,-6.216683E-3,-5.703504E-3,-7.049776E-4,1.0278305E-3,5.522953E-3,-0E0,1.1942102E-2,-0E0,-1.264087E-4,-1.2653087E-4,-0E0,-2.4375862E-5,4.9136404E-5,-0E0,5.9142676E-5,-0E0,1.1821973E-4,-0E0,2.3959031E-4],"categories":[],"categories_nodes":[],"categories_segments":[],"categories_sizes":[],"default_left":[0,0,0,0,0,0,0,0,0,0,0,0,0,0,0,0,0,0,0,0,0,0,0,0,0,0,0,0,0,0,0,0,0,0,0],"id":14,"left_children":[1,3,5,7,9,-1,11,13,15,17,19,21,-1,-1,-1,-1,23,25,27,29,31,-1,33,-1,-1,-1,-1,-1,-1,-1,-1,-1,-1,-1,-1],"loss_changes":[2.7057659E-2,1.2598254E-2,3.8188323E-4,4.7890563E-4,5.8684763E-3,0E0,9.926967E-5,5.130004E-5,2.2756448E-4,2.9970221E-3,1.5583716E-3,8.434802E-5,0E0,0E0,0E0,0E0,4.8879767E-5,7.2387373E-4,1.005026E-3,8.4152684E-4,2.8062146E-4,0E0,1.40126795E-5,0E0,0E0,0E0,0E0,0E0,0E0,0E0,0E0,0E0,0E0,0E0,0E0],"parents":[2147483647,0,0,1,1,2,2,3,3,4,4,6,6,7,7,8,8,9,9,10,10,11,11,16,16,17,17,18,18,19,19,20,20,22,22],"right_children":[2,4,6,8,10,-1,12,14,16,18,20,22,-1,-1,-1,-1,24,26,28,30,32,-1,34,-1,-1,-1,-1,-1,-1,-1,-1,-1,-1,-1,-1],"split_conditions":[8.006547E-1,1.1652084E-1,2.7287462E-1,4.0341314E-2,4.3852916E-1,-0E0,6.6206795E-1,8.438431E-1,5.7127997E-3,3.258329E-1,6.49974E-1,2.3115294E-1,-0E0,-2.5853215E-4,-0E0,-0E0,3.9930765E-2,8.033971E-1,2E0,4.80671E-1,5.054257E-1,-0E0,7.223699E-2,-0E0,-1.264087E-4,-1.2653087E-4,-0E0,-2.4375862E-5,4.9136404E-5,-0E0,5.9142676E-5,-0E0,1.1821973E-4,-0E0,2.3959031E-4],"split_indices":[3,3,30,3,34,0,15,15,11,30,36,32,0,0,0,0,15,6,21,11,38,0,24,0,0,0,0,0,0,0,0,0,0,0,0],"split_type":[0,0,0,0,0,0,0,0,0,0,0,0,0,0,0,0,0,0,0,0,0,0,0,0,0,0,0,0,0,0,0,0,0,0,0],"sum_hessian":[1.726E3,1.538E3,1.88E2,1.87E2,1.351E3,1E1,1.78E2,7.3E1,1.14E2,8.57E2,4.94E2,1.77E2,1E0,7.1E1,2E0,1.6E1,9.8E1,1.65E2,6.92E2,3.53E2,1.41E2,2E0,1.75E2,2E0,9.6E1,1.52E2,1.3E1,6.23E2,6.9E1,2.15E2,1.38E2,1E1,1.31E2,1E0,1.74E2],"tree_param":{"num_deleted":"0","num_feature":"40","num_nodes":"35","size_leaf_vector":"1"}},{"base_weights":[-1.8860266E-5,-1.5027514E-3,9.633834E-3,-9.161608E-3,-3.296146E-4,-0E0,1.0139847E-2,-0E0,-9.709803E-3,-2.6994024E-3,1.3244081E-3,5.3974474E-3,1.2179636E-2,-9.782765E-3,-0E0,-6.13364E-3,-1.439373E-3,5.588029E-4,6.6996785E-3,5.764372E-3,-0E0,1.2263501E-2,-0E0,-1.9639793E-4,-0E0,-1.3814004E-4,-0E0,-3.885801E-5,2.8984728E-5,-4.7133713E-6,4.1597563E-5,-0E0,1.422611E-4,1.1636691E-4,-0E0,-0E0,2.4758696E-4],"categories":[],"categories_nodes":[],"categories_segments":[],"categories_sizes":[],"default_left":[0,0,0,0,0,0,0,0,0,0,0,0,0,0,0,0,0,0,0,0,0,0,0,0,0,0,0,0,0,0,0,0,0,0,0,0,0],"id":15,"left_children":[1,3,5,7,9,-1,11,-1,13,15,17,19,21,23,-1,25,27,29,31,33,-1,35,-1,-1,-1,-1,-1,-1,-1,-1,-1,-1,-1,-1,-1,-1,-1],"loss_changes":[2.4339193E-2,1.280372E-2,8.118618E-4,4.7779642E-4,5.39345E-3,0E0,2.1766312E-4,0E0,1.5460886E-4,1.7263605E-3,2.4186394E-3,1.947321E-4,1.2019463E-4,3.0945987E-5,0E0,6.2572164E-4,6.979775E-4,1.0151172E-3,1.9810093E-4,1.365901E-5,0E0,6.74855E-5,0E0,0E0,0E0,0E0,0E0,0E0,0E0,0E0,0E0,0E0,0E0,0E0,0E0,0E0,0E0],"parents":[2147483647,0,0,1,1,2,2,3,3,4,4,6,6,8,8,9,9,10,10,11,11,12,12,13,13,15,15,16,16,17,17,18,18,19,19,21,21],"right_children":[2,4,6,8,10,-1,12,-1,14,16,18,20,22,24,-1,26,28,30,32,34,-1,36,-1,-1,-1,-1,-1,-1,-1,-1,-1,-1,-1,-1,-1,-1,-1],"split_conditions":[7.5177234E-1,1.1652084E-1,2.771359E-1,1.14457235E-1,3.8013235E-1,-0E0,8.769559E-1,-0E0,7.658743E-1,3.0920216E-1,4.9808058E-1,4.3333334E-1,9.7824985E-1,6.657146E-1,-0E0,6.303521E-1,6.9140154E-1,4.6565685E-1,3.8877904E-1,9.951927E-1,-0E0,1.4435653E-1,-0E0,-1.9639793E-4,-0E0,-1.3814004E-4,-0E0,-3.885801E-5,2.8984728E-5,-4.7133713E-6,4.1597563E-5,-0E0,1.422611E-4,1.1636691E-4,-0E0,-0E0,2.4758696E-4],"split_indices":[3,3,30,4,30,0,3,0,38,30,30,20,7,34,0,38,8,3,8,7,0,7,0,0,0,0,0,0,0,0,0,0,0,0,0,0,0],"split_type":[0,0,0,0,0,0,0,0,0,0,0,0,0,0,0,0,0,0,0,0,0,0,0,0,0,0,0,0,0,0,0,0,0,0,0,0,0],"sum_hessian":[1.754E3,1.53E3,2.24E2,1.91E2,1.339E3,1.4E1,2.1E2,1.6E1,1.75E2,5.75E2,7.64E2,7.9E1,1.31E2,1.74E2,1E0,1.32E2,4.43E2,6.86E2,7.8E1,7.5E1,4E0,1.3E2,1E0,1.73E2,1E0,1.17E2,1.5E1,4.07E2,3.6E1,4.08E2,2.78E2,5E0,7.3E1,7.4E1,1E0,2E0,1.28E2],"tree_param":{"num_deleted":"0","num_feature":"40","num_nodes":"37","size_leaf_vector":"1"}},{"base_weights":[-0E0,-1.406021E-3,9.729128E-3,-8.5665705E-3,-2.883525E-4,-0E0,1.0134825E-2,-1.1235572E-2,-4.5866906E-3,-1.8475186E-3,2.1222907E-3,1.0243679E-2,-0E0,-0E0,-1.1729455E-2,-0E0,-4.7355597E-3,-6.3184393E-3,-9.825504E-4,1.1677535E-3,6.3906247E-3,3.5266688E-3,1.1451364E-2,-2.429054E-4,-0E0,-9.799519E-5,-0E0,-1.3808039E-4,-0E0,-2.630002E-5,1.252084E-4,-0E0,3.572042E-5,-0E0,1.3401608E-4,7.682387E-5,-0E0,-0E0,2.3095672E-4],"categories":[],"categories_nodes":[],"categories_segments":[],"categories_sizes":[],"default_left":[0,0,0,0,0,0,0,0,0,0,0,0,0,0,0,0,0,0,0,0,0,0,0,0,0,0,0,0,0,0,0,0,0,0,0,0,0,0,0],"id":16,"left_children":[1,3,5,7,9,-1,11,13,15,17,19,21,-1,-1,23,-1,25,27,29,31,33,35,37,-1,-1,-1,-1,-1,-1,-1,-1,-1,-1,-1,-1,-1,-1,-1,-1],"loss_changes":[2.3594406E-2,1.10927075E-2,5.242266E-4,3.8447883E-4,4.892684E-3,0E0,1.4217198E-4,2.860371E-4,1.0663923E-4,2.4348004E-3,1.229024E-3,1.08551234E-4,0E0,0E0,2.8283335E-5,0E0,7.353211E-5,6.9201784E-4,1.216097E-3,4.480264E-4,1.4954689E-4,3.0507974E-5,8.608587E-5,0E0,0E0,0E0,0E0,0E0,0E0,0E0,0E0,0E0,0E0,0E0,0E0,0E0,0E0,0E0,0E0],"parents":[2147483647,0,0,1,1,2,2,3,3,4,4,6,6,7,7,8,8,9,9,10,10,11,11,14,14,16,16,17,17,18,18,19,19,20,20,21,21,22,22],"right_children":[2,4,6,8,10,-1,12,14,16,18,20,22,-1,-1,24,-1,26,28,30,32,34,36,38,-1,-1,-1,-1,-1,-1,-1,-1,-1,-1,-1,-1,-1,-1,-1,-1],"split_conditions":[7.5177234E-1,1.1652084E-1,2.4024305E-1,1.8963617E-1,4.11045E-1,-0E0,9.7824985E-1,3.44403E-1,1.7905725E-2,2.9168814E-1,5.022846E-1,8.376801E-1,-0E0,-0E0,7.93129E-1,-0E0,7.454441E-1,1.7329084E0,1.1066045E0,2.4927999E-1,1.2748209E-1,8.912711E-1,2.7287462E-1,-2.429054E-4,-0E0,-9.799519E-5,-0E0,-1.3808039E-4,-0E0,-2.630002E-5,1.252084E-4,-0E0,3.572042E-5,-0E0,1.3401608E-4,7.682387E-5,-0E0,-0E0,2.3095672E-4],"split_indices":[3,3,32,17,32,0,7,25,12,32,30,3,0,0,24,0,5,25,12,1,1,35,30,0,0,0,0,0,0,0,0,0,0,0,0,0,0,0,0],"split_type":[0,0,0,0,0,0,0,0,0,0,0,0,0,0,0,0,0,0,0,0,0,0,0,0,0,0,0,0,0,0,0,0,0,0,0,0,0,0,0],"sum_hessian":[1.713E3,1.496E3,2.17E2,1.89E2,1.307E3,1.2E1,2.05E2,9.7E1,9.2E1,8.19E2,4.88E2,2.02E2,3E0,6E0,9.1E1,1E0,9.1E1,1.13E2,7.06E2,4.19E2,6.9E1,4.4E1,1.58E2,8.5E1,6E0,8.8E1,3E0,1.09E2,4E0,6.89E2,1.7E1,1E2,3.19E2,3E0,6.6E1,3.9E1,5E0,2E0,1.56E2],"tree_param":{"num_deleted":"0","num_feature":"40","num_nodes":"39","size_leaf_vector":"1"}},{"base_weights":[-3.9906477E-5,-1.4476236E-3,9.386479E-3,-8.508204E-3,-3.316636E-4,-0E0,9.923136E-3,-2.2406636E-4,-4.5574186E-3,-3.4179455E-3,8.230628E-4,-0E0,1.0101711E-2,-5.056838E-3,-0E0,-3.9841905E-3,5.2253227E-3,-0E0,4.309229E-3,1.0144713E-2,-0E0,-0E0,-1.045919E-4,-1.3644084E-4,-3.7809292E-5,-0E0,1.3384146E-4,-7.584151E-6,5.0198305E-5,-0E0,9.4079645E-5,-0E0,2.0419303E-4],"categories":[],"categories_nodes":[],"categories_segments":[],"categories_sizes":[],"default_left":[0,0,0,0,0,0,0,0,0,0,0,0,0,0,0,0,0,0,0,0,0,0,0,0,0,0,0,0,0,0,0,0,0],"id":17,"left_children":[1,3,5,7,9,-1,11,-1,13,15,17,-1,19,21,-1,23,25,27,29,31,-1,-1,-1,-1,-1,-1,-1,-1,-1,-1,-1,-1,-1],"loss_changes":[2.200375E-2,1.0963695E-2,8.390453E-4,4.278971E-4,4.9380213E-3,0E0,3.0701235E-4,0E0,1.4928728E-4,1.7613992E-3,2.711135E-3,0E0,6.77295E-5,1.201469E-4,0E0,1.3083341E-3,9.288656E-5,6.993881E-4,3.749095E-4,4.9272552E-5,0E0,0E0,0E0,0E0,0E0,0E0,0E0,0E0,0E0,0E0,0E0,0E0,0E0],"parents":[2147483647,0,0,1,1,2,2,3,3,4,4,6,6,8,8,9,9,10,10,12,12,13,13,15,15,16,16,17,17,18,18,19,19],"right_children":[2,4,6,8,10,-1,12,-1,14,16,18,-1,20,22,-1,24,26,28,30,32,-1,-1,-1,-1,-1,-1,-1,-1,-1,-1,-1,-1,-1],"split_conditions":[7.5177234E-1,1.1652084E-1,2.431166E-1,1.8963617E-1,4.6121737E-1,-0E0,2.8607398E-1,-2.2406636E-4,4.5506474E-1,1.7329084E0,4.5959502E-1,-0E0,6.6206795E-1,1.7905725E-2,-0E0,3.444695E-1,1.3043478E-1,4.1702375E-1,1.7012747E-1,2.7287462E-1,-0E0,-0E0,-1.045919E-4,-1.3644084E-4,-3.7809292E-5,-0E0,1.3384146E-4,-7.584151E-6,5.0198305E-5,-0E0,9.4079645E-5,-0E0,2.0419303E-4],"split_indices":[3,3,32,17,36,0,36,0,32,25,32,0,15,12,0,30,19,24,1,30,0,0,0,0,0,0,0,0,0,0,0,0,0],"split_type":[0,0,0,0,0,0,0,0,0,0,0,0,0,0,0,0,0,0,0,0,0,0,0,0,0,0,0,0,0,0,0,0,0],"sum_hessian":[1.716E3,1.503E3,2.13E2,1.92E2,1.311E3,1.4E1,1.99E2,9.8E1,9.4E1,3.8E2,9.31E2,4E0,1.95E2,8.2E1,1.2E1,3.68E2,1.2E1,7.52E2,1.79E2,1.94E2,1E0,1E0,8.1E1,1.35E2,2.33E2,3E0,9E0,6.57E2,9.5E1,1.2E1,1.67E2,2E0,1.92E2],"tree_param":{"num_deleted":"0","num_feature":"40","num_nodes":"33","size_leaf_vector":"1"}},{"base_weights":[5.5272754E-5,-1.2596907E-3,9.248516E-3,-6.030519E-3,3.7518184E-5,5.7544797E-3,1.2733122E-2,-9.944866E-3,-3.7442767E-3,-1.3957849E-3,2.6444562E-3,-0E0,6.3533564E-3,-0E0,1.2863462E-2,-1.0028514E-2,-0E0,-4.069554E-3,-0E0,-4.399119E-3,-1.9793399E-4,8.6330384E-4,4.8877904E-3,-0E0,6.4729354E-3,-0E0,1.2948482E-2,-2.0307138E-4,-0E0,-8.487512E-5,-0E0,-1.11884576E-4,-7.372292E-7,-1.042555E-5,1.3263547E-4,-0E0,5.802397E-5,-0E0,1.0198061E-4,1.3171205E-4,-0E0,2.6338786E-4,-0E0],"categories":[],"categories_nodes":[],"categories_segments":[],"categories_sizes":[],"default_left":[0,0,0,0,0,0,0,0,0,0,0,0,0,0,0,0,0,0,0,0,0,0,0,0,0,0,0,0,0,0,0,0,0,0,0,0,0,0,0,0,0,0,0],"id":18,"left_children":[1,3,5,7,9,11,13,15,17,19,21,-1,23,-1,25,27,-1,29,-1,31,33,35,37,-1,39,-1,41,-1,-1,-1,-1,-1,-1,-1,-1,-1,-1,-1,-1,-1,-1,-1,-1],"loss_changes":[2.190545E-2,9.994064E-3,8.5394457E-4,1.6455073E-3,4.5301933E-3,3.7753116E-4,1.6481802E-4,8.153822E-5,3.2722694E-4,2.187218E-3,1.1907755E-3,0E0,5.221879E-5,0E0,4.740618E-5,6.63884E-5,0E0,2.2421125E-4,0E0,4.0637306E-4,6.0920365E-4,3.6888765E-4,1.7874362E-4,0E0,3.6143232E-5,0E0,3.9361417E-5,0E0,0E0,0E0,0E0,0E0,0E0,0E0,0E0,0E0,0E0,0E0,0E0,0E0,0E0,0E0,0E0],"parents":[2147483647,0,0,1,1,2,2,3,3,4,4,5,5,6,6,7,7,8,8,9,9,10,10,12,12,14,14,15,15,17,17,19,19,20,20,21,21,22,22,24,24,26,26],"right_children":[2,4,6,8,10,12,14,16,18,20,22,-1,24,-1,26,28,-1,30,-1,32,34,36,38,-1,40,-1,42,-1,-1,-1,-1,-1,-1,-1,-1,-1,-1,-1,-1,-1,-1,-1,-1],"split_conditions":[7.5177234E-1,2.0391452E-1,9.0914047E-1,6.266646E-2,4.3852916E-1,2.995991E-1,1.1011031E-1,6.736872E-1,7.1853685E-1,3.444695E-1,4.5506474E-1,-0E0,3.6057672E-1,-0E0,2.9546E-1,8.04517E-1,-0E0,1.7329084E0,-0E0,4.7806382E-1,1.5690619E0,3.391018E-1,4.6522072E-1,-0E0,4.3333334E-1,-0E0,9.161127E-1,-2.0307138E-4,-0E0,-8.487512E-5,-0E0,-1.11884576E-4,-7.372292E-7,-1.042555E-5,1.3263547E-4,-0E0,5.802397E-5,-0E0,1.0198061E-4,1.3171205E-4,-0E0,2.6338786E-4,-0E0],"split_indices":[3,3,3,3,34,30,30,5,38,30,32,0,17,0,38,24,0,25,0,36,25,15,36,0,20,0,6,0,0,0,0,0,0,0,0,0,0,0,0,0,0,0,0],"split_type":[0,0,0,0,0,0,0,0,0,0,0,0,0,0,0,0,0,0,0,0,0,0,0,0,0,0,0,0,0,0,0,0,0,0,0,0,0,0,0,0,0,0,0],"sum_hessian":[1.744E3,1.517E3,2.27E2,3.4E2,1.177E3,1.29E2,9.8E1,1.08E2,2.32E2,7.35E2,4.42E2,1.4E1,1.15E2,1E0,9.7E1,1.07E2,1E0,2.16E2,1.6E1,1.85E2,5.5E2,2.72E2,1.7E2,3E0,1.12E2,1E0,9.6E1,1.05E2,2E0,2.11E2,5E0,1.27E2,5.8E1,5.4E2,1E1,2.05E2,6.7E1,7E0,1.63E2,1.09E2,3E0,9.3E1,3E0],"tree_param":{"num_deleted":"0","num_feature":"40","num_nodes":"43","size_leaf_vector":"1"}},{"base_weights":[-0E0,-1.285337E-3,9.0254815E-3,-8.409188E-3,-2.1129966E-4,5.422331E-3,1.23961605E-2,-9.017929E-3,-0E0,-3.2246965E-3,9.384333E-4,-0E0,6.0527595E-3,-0E0,1.2525705E-2,-9.238352E-3,-0E0,-3.8745091E-3,7.4077216E-3,6.9264075E-5,4.4303094E-3,-0E0,6.1762054E-3,1.2647143E-2,-0E0,-1.8910591E-4,-0E0,-1.264182E-4,-3.791515E-5,-0E0,1.9609164E-4,-8.217857E-6,4.1522406E-5,-0E0,1.0555128E-4,1.2582475E-4,-0E0,-0E0,2.5465153E-4],"categories":[],"categories_nodes":[],"categories_segments":[],"categories_sizes":[],"default_left":[0,0,0,0,0,0,0,0,0,0,0,0,0,0,0,0,0,0,0,0,0,0,0,0,0,0,0,0,0,0,0,0,0,0,0,0,0,0,0],"id":19,"left_children":[1,3,5,7,9,11,13,15,-1,17,19,-1,21,-1,23,25,-1,27,29,31,33,-1,35,37,-1,-1,-1,-1,-1,-1,-1,-1,-1,-1,-1,-1,-1,-1,-1],"loss_changes":[2.0176288E-2,1.0712564E-2,7.864125E-4,5.093869E-4,4.8326435E-3,3.2580295E-4,1.5627127E-4,3.346596E-4,0E0,2.3768297E-3,2.3965952E-3,0E0,4.5583118E-5,0E0,1.3351627E-4,3.92776E-5,0E0,9.961803E-4,1.9305764E-4,9.1417046E-4,4.576207E-4,0E0,2.8978568E-5,4.3866225E-5,0E0,0E0,0E0,0E0,0E0,0E0,0E0,0E0,0E0,0E0,0E0,0E0,0E0,0E0,0E0],"parents":[2147483647,0,0,1,1,2,2,3,3,4,4,5,5,6,6,7,7,9,9,10,10,12,12,14,14,15,15,17,17,18,18,19,19,20,20,22,22,23,23],"right_children":[2,4,6,8,10,12,14,16,-1,18,20,-1,22,-1,24,26,-1,28,30,32,34,-1,36,38,-1,-1,-1,-1,-1,-1,-1,-1,-1,-1,-1,-1,-1,-1,-1],"split_conditions":[7.5177234E-1,1.1652084E-1,9.0914047E-1,1E0,4.6121737E-1,2.995991E-1,1.1011031E-1,7.248793E-1,-0E0,1.7329084E0,6.613741E-1,-0E0,2.8607398E-1,-0E0,9.7824985E-1,3.2002512E-1,-0E0,3.444695E-1,1.9870973E-1,5.229581E-1,4.3159625E-1,-0E0,4.3333334E-1,2.9546E-1,-0E0,-1.8910591E-4,-0E0,-1.264182E-4,-3.791515E-5,-0E0,1.9609164E-4,-8.217857E-6,4.1522406E-5,-0E0,1.0555128E-4,1.2582475E-4,-0E0,-0E0,2.5465153E-4],"split_indices":[3,3,3,20,36,30,30,5,0,25,36,0,36,0,7,17,0,30,3,37,34,0,20,38,0,0,0,0,0,0,0,0,0,0,0,0,0,0,0],"split_type":[0,0,0,0,0,0,0,0,0,0,0,0,0,0,0,0,0,0,0,0,0,0,0,0,0,0,0,0,0,0,0,0,0,0,0,0,0,0,0],"sum_hessian":[1.728E3,1.512E3,2.16E2,1.85E2,1.327E3,1.2E2,9.6E1,1.67E2,1.8E1,3.9E2,9.37E2,1.5E1,1.05E2,1E0,9.5E1,1.63E2,4E0,3.77E2,1.3E1,7.74E2,1.63E2,3E0,1.02E2,9.4E1,1E0,1.56E2,7E0,1.45E2,2.32E2,4E0,9E0,5.85E2,1.89E2,3.2E1,1.31E2,9.9E1,3E0,1E0,9.3E1],"tree_param":{"num_deleted":"0","num_feature":"40","num_nodes":"39","size_leaf_vector":"1"}},{"base_weights":[-0E0,-1.2098682E-3,9.408378E-3,-5.7663866E-3,-0E0,-0E0,1.0005727E-2,-2.520417E-4,-4.2177658E-3,-2.5183067E-3,1.588381E-3,-0E0,1.0208355E-2,-4.6609147E-3,-0E0,-4.436243E-3,-4.4809098E-4,7.893481E-4,6.5159975E-3,1.0701801E-2,-0E0,-0E0,-9.874103E-5,-9.738302E-5,-0E0,-2.3676075E-5,-0E0,-0E0,6.2236264E-5,-0E0,1.3304541E-4,-0E0,2.169754E-4],"categories":[],"categories_nodes":[],"categories_segments":[],"categories_sizes":[],"default_left":[0,0,0,0,0,0,0,0,0,0,0,0,0,0,0,0,0,0,0,0,0,0,0,0,0,0,0,0,0,0,0,0,0],"id":20,"left_children":[1,3,5,7,9,-1,11,-1,13,15,17,-1,19,21,-1,23,25,27,29,31,-1,-1,-1,-1,-1,-1,-1,-1,-1,-1,-1,-1,-1],"loss_changes":[1.9625627E-2,8.962731E-3,7.712953E-4,1.8428992E-3,4.8130876E-3,0E0,2.2030994E-4,0E0,5.7226606E-4,1.3161751E-3,2.2724406E-3,0E0,2.1257438E-4,1.6080402E-4,0E0,7.0773624E-4,1.9885381E-4,9.4416144E-4,7.12031E-5,4.2311847E-5,0E0,0E0,0E0,0E0,0E0,0E0,0E0,0E0,0E0,0E0,0E0,0E0,0E0],"parents":[2147483647,0,0,1,1,2,2,3,3,4,4,6,6,8,8,9,9,10,10,12,12,13,13,15,15,16,16,17,17,18,18,19,19],"right_children":[2,4,6,8,10,-1,12,-1,14,16,18,-1,20,22,-1,24,26,28,30,32,-1,-1,-1,-1,-1,-1,-1,-1,-1,-1,-1,-1,-1],"split_conditions":[7.957145E-1,2.0718461E-1,2.771359E-1,9.1712805E-4,3.720066E-1,-0E0,2.7757466E-1,-2.520417E-4,4.7561112E-1,4.8012584E-1,5.085973E-1,-0E0,9.3316966E-1,6.658962E-2,-0E0,1.7329084E0,6.035311E-1,6.082597E-1,3.9798516E-1,7.982358E-1,-0E0,-0E0,-9.874103E-5,-9.738302E-5,-0E0,-2.3676075E-5,-0E0,-0E0,6.2236264E-5,-0E0,1.3304541E-4,-0E0,2.169754E-4],"split_indices":[1,1,30,27,30,0,36,0,30,36,32,0,7,24,0,25,36,4,30,1,0,0,0,0,0,0,0,0,0,0,0,0,0],"split_type":[0,0,0,0,0,0,0,0,0,0,0,0,0,0,0,0,0,0,0,0,0,0,0,0,0,0,0,0,0,0,0,0,0],"sum_hessian":[1.749E3,1.554E3,1.95E2,3.37E2,1.217E3,1.5E1,1.8E2,4.9E1,2.88E2,4.54E2,7.63E2,5E0,1.75E2,2.62E2,2.6E1,2.1E2,2.44E2,6.75E2,8.8E1,1.61E2,1.4E1,2.2E1,2.4E2,2.04E2,6E0,1.76E2,6.8E1,5.35E2,1.4E2,2E0,8.6E1,4E0,1.57E2],"tree_param":{"num_deleted":"0","num_feature":"40","num_nodes":"33","size_leaf_vector":"1"}},{"base_weights":[-0E0,-1.2467849E-3,8.928763E-3,-7.982451E-3,-2.1658445E-4,5.2223476E-3,1.1922245E-2,-1.2186039E-2,-5.0469493E-3,-3.2494809E-3,9.11882E-4,-0E0,5.6688236E-3,-0E0,1.2036172E-2,-1.2450837E-2,-0E0,-5.223463E-3,-0E0,-3.8359626E-3,5.4653157E-3,1.8801438E-4,5.522217E-3,5.975216E-3,-0E0,1.2142394E-2,-0E0,-2.5127505E-4,-0E0,-0E0,-1.0619469E-4,-1.2443477E-4,-3.781597E-5,-0E0,1.319427E-4,-2.7530539E-6,4.95124E-5,-0E0,1.21084064E-4,1.204076E-4,-0E0,2.4446333E-4,-0E0],"categories":[],"categories_nodes":[],"categories_segments":[],"categories_sizes":[],"default_left":[0,0,0,0,0,0,0,0,0,0,0,0,0,0,0,0,0,0,0,0,0,0,0,0,0,0,0,0,0,0,0,0,0,0,0,0,0,0,0,0,0,0,0],"id":21,"left_children":[1,3,5,7,9,11,13,15,17,19,21,-1,23,-1,25,27,-1,29,-1,31,33,35,37,39,-1,41,-1,-1,-1,-1,-1,-1,-1,-1,-1,-1,-1,-1,-1,-1,-1,-1,-1],"loss_changes":[1.9904926E-2,9.739657E-3,6.641969E-4,5.4739043E-4,4.802367E-3,2.6998436E-4,1.4446024E-4,1.0094978E-4,1.7566513E-4,1.8309015E-3,2.59501E-3,0E0,1.9965437E-4,0E0,1.2223236E-4,1.4451332E-5,0E0,8.539623E-5,0E0,9.079729E-4,6.0568593E-5,8.5993577E-4,1.642874E-4,1.8473947E-5,0E0,5.5274926E-5,0E0,0E0,0E0,0E0,0E0,0E0,0E0,0E0,0E0,0E0,0E0,0E0,0E0,0E0,0E0,0E0,0E0],"parents":[2147483647,0,0,1,1,2,2,3,3,4,4,5,5,6,6,7,7,8,8,9,9,10,10,12,12,14,14,15,15,17,17,19,19,20,20,21,21,22,22,23,23,25,25],"right_children":[2,4,6,8,10,12,14,16,18,20,22,-1,24,-1,26,28,-1,30,-1,32,34,36,38,40,-1,42,-1,-1,-1,-1,-1,-1,-1,-1,-1,-1,-1,-1,-1,-1,-1,-1,-1],"split_conditions":[7.5177234E-1,1.1652084E-1,9.0262616E-1,2.0518051E-2,4.6121737E-1,2.771359E-1,1.1011031E-1,2.0065477E-1,7.207403E-1,1.7329084E0,5.687248E-1,-0E0,4.3333334E-1,-0E0,9.7824985E-1,5.745929E-1,-0E0,9.1712805E-4,-0E0,3.444695E-1,1.6051942E-1,5.296561E-1,3.990886E-1,9.951927E-1,-0E0,9.7630674E-1,-0E0,-2.5127505E-4,-0E0,-0E0,-1.0619469E-4,-1.2443477E-4,-3.781597E-5,-0E0,1.319427E-4,-2.7530539E-6,4.95124E-5,-0E0,1.21084064E-4,1.204076E-4,-0E0,2.4446333E-4,-0E0],"split_indices":[3,3,3,3,36,30,30,13,38,25,34,0,20,0,7,5,0,29,0,30,2,13,32,7,0,5,0,0,0,0,0,0,0,0,0,0,0,0,0,0,0,0,0],"split_type":[0,0,0,0,0,0,0,0,0,0,0,0,0,0,0,0,0,0,0,0,0,0,0,0,0,0,0,0,0,0,0,0,0,0,0,0,0,0,0,0,0,0,0],"sum_hessian":[1.74E3,1.521E3,2.19E2,1.88E2,1.333E3,1.14E2,1.05E2,6.2E1,1.26E2,3.85E2,9.48E2,9E0,1.05E2,1E0,1.04E2,6E1,2E0,1.24E2,2E0,3.72E2,1.3E1,8.39E2,1.09E2,1E2,5E0,1.03E2,1E0,5.9E1,1E0,1E0,1.23E2,1.43E2,2.29E2,3E0,1E1,6.97E2,1.42E2,1.4E1,9.5E1,9.9E1,1E0,1.02E2,1E0],"tree_param":{"num_deleted":"0","num_feature":"40","num_nodes":"43","size_leaf_vector":"1"}},{"base_weights":[8.741559E-5,-1.1409085E-3,8.692875E-3,-8.770318E-3,-2.4060097E-4,5.4288567E-3,1.1785602E-2,-8.952613E-3,-0E0,-4.302116E-3,4.58409E-4,-0E0,5.871419E-3,-0E0,1.1970282E-2,-0E0,-9.341448E-3,-4.9080374E-3,-0E0,6.852551E-5,1.03469705E-2,-0E0,5.9843147E-3,1.2082335E-2,-0E0,-1.8778449E-4,-0E0,-1.0324973E-4,-0E0,-9.612803E-6,7.033649E-5,-0E0,2.478433E-4,1.205017E-4,-0E0,-0E0,2.4328119E-4],"categories":[],"categories_nodes":[],"categories_segments":[],"categories_sizes":[],"default_left":[0,0,0,0,0,0,0,0,0,0,0,0,0,0,0,0,0,0,0,0,0,0,0,0,0,0,0,0,0,0,0,0,0,0,0,0,0],"id":22,"left_children":[1,3,5,7,9,11,13,15,-1,17,19,-1,21,-1,23,-1,25,27,-1,29,31,-1,33,35,-1,-1,-1,-1,-1,-1,-1,-1,-1,-1,-1,-1,-1],"loss_changes":[1.9273698E-2,9.558002E-3,5.2626245E-4,2.409434E-4,4.2900224E-3,1.6250857E-4,1.5653484E-4,2.5318656E-4,0E0,7.1452605E-4,3.4030024E-3,0E0,4.6486966E-5,0E0,1.2083817E-4,0E0,3.4443103E-5,3.8179243E-4,0E0,2.4262387E-3,3.526765E-4,0E0,1.8536579E-5,4.622806E-5,0E0,0E0,0E0,0E0,0E0,0E0,0E0,0E0,0E0,0E0,0E0,0E0,0E0],"parents":[2147483647,0,0,1,1,2,2,3,3,4,4,5,5,6,6,7,7,9,9,10,10,12,12,14,14,16,16,17,17,19,19,20,20,22,22,23,23],"right_children":[2,4,6,8,10,12,14,16,-1,18,20,-1,22,-1,24,-1,26,28,-1,30,32,-1,34,36,-1,-1,-1,-1,-1,-1,-1,-1,-1,-1,-1,-1,-1],"split_conditions":[7.5177234E-1,8.481304E-2,9.0914047E-1,7.248793E-1,3.3607522E-1,2.995991E-1,2.9975158E-1,9.643206E-2,-0E0,6.035311E-1,1.1066045E0,-0E0,3.6057672E-1,-0E0,9.7824985E-1,-0E0,6.657146E-1,1.7329084E0,-0E0,7.151318E-1,2.0915443E-1,-0E0,9.951927E-1,2.9546E-1,-0E0,-1.8778449E-4,-0E0,-1.0324973E-4,-0E0,-9.612803E-6,7.033649E-5,-0E0,2.478433E-4,1.205017E-4,-0E0,-0E0,2.4328119E-4],"split_indices":[3,3,3,5,30,30,28,4,0,36,12,0,17,0,7,0,34,25,0,38,18,0,7,38,0,0,0,0,0,0,0,0,0,0,0,0,0],"split_type":[0,0,0,0,0,0,0,0,0,0,0,0,0,0,0,0,0,0,0,0,0,0,0,0,0,0,0,0,0,0,0,0,0,0,0,0,0],"sum_hessian":[1.75E3,1.522E3,2.28E2,1.48E2,1.374E3,1.28E2,1E2,1.45E2,3E0,2.22E2,1.152E3,1.4E1,1.14E2,2E0,9.8E1,9E0,1.36E2,2E2,2.2E1,1.119E3,3.3E1,3E0,1.11E2,9.7E1,1E0,1.35E2,1E0,1.95E2,5E0,9.41E2,1.78E2,8E0,2.5E1,1.1E2,1E0,1E0,9.6E1],"tree_param":{"num_deleted":"0","num_feature":"40","num_nodes":"37","size_leaf_vector":"1"}},{"base_weights":[-0E0,-1.1765079E-3,9.426091E-3,-6.3543795E-3,-0E0,-0E0,1.0298818E-2,-1.2208133E-2,-4.472188E-3,-1.8469788E-3,1.7170941E-3,-0E0,2.2193014E-4,1.03742685E-2,-0E0,-1.2379119E-2,-0E0,-6.6655804E-3,-2.3589155E-3,-3.6260292E-3,-2.0873694E-4,8.7951066E-4,6.1197258E-3,8.297348E-6,-0E0,-0E0,1.0517171E-2,-0E0,-2.4976092E-4,-1.4317012E-4,-0E0,-5.0476912E-5,-0E0,-8.101187E-5,-0E0,-2.0380807E-5,1.1132991E-5,-1.5494637E-5,3.0490379E-5,-0E0,1.3096152E-4,2.1464372E-4,-0E0],"categories":[],"categories_nodes":[],"categories_segments":[],"categories_sizes":[],"default_left":[0,0,0,0,0,0,0,0,0,0,0,0,0,0,0,0,0,0,0,0,0,0,0,0,0,0,0,0,0,0,0,0,0,0,0,0,0,0,0,0,0,0,0],"id":23,"left_children":[1,3,5,7,9,11,13,15,17,19,21,-1,23,25,-1,27,-1,29,31,33,35,37,39,-1,-1,-1,41,-1,-1,-1,-1,-1,-1,-1,-1,-1,-1,-1,-1,-1,-1,-1,-1],"loss_changes":[1.8682858E-2,9.876145E-3,5.5025145E-4,1.5607001E-3,3.9944807E-3,1.2313247E-6,3.5874546E-5,9.479746E-5,1.942832E-4,1.3382446E-3,1.7690547E-3,0E0,2.8994345E-6,3.2238662E-5,0E0,1.15484E-6,0E0,1.2809737E-4,8.653238E-5,7.293988E-4,2.5643234E-4,6.9928786E-4,2.2024638E-4,0E0,0E0,0E0,1.7110258E-5,0E0,0E0,0E0,0E0,0E0,0E0,0E0,0E0,0E0,0E0,0E0,0E0,0E0,0E0,0E0,0E0],"parents":[2147483647,0,0,1,1,2,2,3,3,4,4,5,5,6,6,7,7,8,8,9,9,10,10,12,12,13,13,15,15,17,17,18,18,19,19,20,20,21,21,22,22,26,26],"right_children":[2,4,6,8,10,12,14,16,18,20,22,-1,24,26,-1,28,-1,30,32,34,36,38,40,-1,-1,-1,42,-1,-1,-1,-1,-1,-1,-1,-1,-1,-1,-1,-1,-1,-1,-1,-1],"split_conditions":[8.006547E-1,1.752562E-1,3.1818593E-1,1.1455638E-2,3.8573605E-1,8.697729E-1,9.6442944E-1,1.6911565E-1,3.7172478E-1,4.8012584E-1,4.8780024E-1,-0E0,8.1716794E-1,1.9085906E-1,-0E0,1.4547506E-1,-0E0,1E0,7.207403E-1,1.7329084E0,2.6537988E-1,4.5826423E-1,3.8877904E-1,8.297348E-6,-0E0,-0E0,1.1397713E0,-0E0,-2.4976092E-4,-1.4317012E-4,-0E0,-5.0476912E-5,-0E0,-8.101187E-5,-0E0,-2.0380807E-5,1.1132991E-5,-1.5494637E-5,3.0490379E-5,-0E0,1.3096152E-4,2.1464372E-4,-0E0],"split_indices":[3,3,30,3,30,1,6,13,34,36,30,0,16,34,0,4,0,22,38,25,24,36,8,0,0,0,25,0,0,0,0,0,0,0,0,0,0,0,0,0,0,0,0],"split_type":[0,0,0,0,0,0,0,0,0,0,0,0,0,0,0,0,0,0,0,0,0,0,0,0,0,0,0,0,0,0,0,0,0,0,0,0,0,0,0,0,0,0,0],"sum_hessian":[1.742E3,1.557E3,1.85E2,2.97E2,1.26E3,2.5E1,1.6E2,5.8E1,2.39E2,5.9E2,6.7E2,1E0,2.4E1,1.58E2,2E0,5.7E1,1E0,9.3E1,1.46E2,2.53E2,3.37E2,5.83E2,8.7E1,2.3E1,1E0,4E0,1.54E2,1E0,5.6E1,8.3E1,1E1,1.41E2,5E0,2.47E2,6E0,2.27E2,1.1E2,1.2E2,4.63E2,6E0,8.1E1,1.48E2,6E0],"tree_param":{"num_deleted":"0","num_feature":"40","num_nodes":"43","size_leaf_vector":"1"}},{"base_weights":[5.120159E-5,-1.1025117E-3,8.446055E-3,-7.3995395E-3,-1.17607735E-4,-0E0,8.920686E-3,-7.940143E-3,-0E0,-2.0489637E-3,1.3560294E-3,-0E0,9.289871E-3,-8.121888E-3,-0E0,-3.9148484E-3,-3.2991925E-4,4.6163268E-4,5.5545797E-3,9.374611E-3,-0E0,-1.6700277E-4,-0E0,-8.7172295E-5,-0E0,-1.991777E-5,4.542824E-6,-4.0814225E-6,4.5559824E-5,-0E0,1.2325005E-4,-0E0,1.8805331E-4],"categories":[],"categories_nodes":[],"categories_segments":[],"categories_sizes":[],"default_left":[0,0,0,0,0,0,0,0,0,0,0,0,0,0,0,0,0,0,0,0,0,0,0,0,0,0,0,0,0,0,0,0,0],"id":24,"left_children":[1,3,5,7,9,-1,11,13,-1,15,17,-1,19,21,-1,23,25,27,29,31,-1,-1,-1,-1,-1,-1,-1,-1,-1,-1,-1,-1,-1],"loss_changes":[1.7770343E-2,8.773637E-3,6.4446405E-4,2.8481986E-4,3.894408E-3,0E0,2.7647614E-4,2.4115946E-4,0E0,1.5340378E-3,2.1483544E-3,0E0,1.3264827E-4,7.759873E-5,0E0,8.209641E-4,2.0583277E-4,9.635798E-4,3.2069837E-4,1.3260171E-5,0E0,0E0,0E0,0E0,0E0,0E0,0E0,0E0,0E0,0E0,0E0,0E0,0E0],"parents":[2147483647,0,0,1,1,2,2,3,3,4,4,6,6,7,7,9,9,10,10,12,12,13,13,15,15,16,16,17,17,18,18,19,19],"right_children":[2,4,6,8,10,-1,12,14,-1,16,18,-1,20,22,-1,24,26,28,30,32,-1,-1,-1,-1,-1,-1,-1,-1,-1,-1,-1,-1,-1],"split_conditions":[7.5177234E-1,1.1652084E-1,2.771359E-1,1E0,3.8488021E-1,-0E0,3.1885034E-1,7.248793E-1,-0E0,4.8012584E-1,2E0,-0E0,9.7824985E-1,3.2002512E-1,-0E0,1.7329084E0,2.6537988E-1,4.959001E-1,2.0440626E-1,7.223699E-2,-0E0,-1.6700277E-4,-0E0,-8.7172295E-5,-0E0,-1.991777E-5,4.542824E-6,-4.0814225E-6,4.5559824E-5,-0E0,1.2325005E-4,-0E0,1.8805331E-4],"split_indices":[3,3,30,20,30,0,8,5,0,36,21,0,7,17,0,25,24,1,15,24,0,0,0,0,0,0,0,0,0,0,0,0,0],"split_type":[0,0,0,0,0,0,0,0,0,0,0,0,0,0,0,0,0,0,0,0,0,0,0,0,0,0,0,0,0,0,0,0,0],"sum_hessian":[1.757E3,1.535E3,2.22E2,1.93E2,1.342E3,1.5E1,2.07E2,1.72E2,2.1E1,6.1E2,7.32E2,1.3E1,1.94E2,1.68E2,4E0,2.64E2,3.46E2,6.24E2,1.08E2,1.92E2,2E0,1.6E2,8E0,2.56E2,8E0,2.39E2,1.07E2,4.17E2,2.07E2,1.2E1,9.6E1,1E0,1.91E2],"tree_param":{"num_deleted":"0","num_feature":"40","num_nodes":"33","size_leaf_vector":"1"}},{"base_weights":[4.7066336E-5,-9.741206E-4,9.089644E-3,-5.826737E-3,8.006927E-5,-0E0,9.471905E-3,-1.0284216E-2,-3.921535E-3,-1.6861906E-3,1.7925556E-3,9.59498E-3,-0E0,-1.0470098E-2,-0E0,-0E0,-4.298876E-3,-3.3890782E-3,-1.6681137E-4,1.0068063E-3,5.9629804E-3,-0E0,9.66451E-3,-2.1286572E-4,-0E0,-0E0,-9.855826E-5,-7.633056E-5,-0E0,-1.7745062E-5,7.92333E-6,3.8752696E-6,5.9206046E-5,-0E0,1.2211944E-4,-0E0,1.93958E-4],"categories":[],"categories_nodes":[],"categories_segments":[],"categories_sizes":[],"default_left":[0,0,0,0,0,0,0,0,0,0,0,0,0,0,0,0,0,0,0,0,0,0,0,0,0,0,0,0,0,0,0,0,0,0,0,0,0],"id":25,"left_children":[1,3,5,7,9,-1,11,13,15,17,19,21,-1,23,-1,-1,25,27,29,31,33,-1,35,-1,-1,-1,-1,-1,-1,-1,-1,-1,-1,-1,-1,-1,-1],"loss_changes":[1.6924785E-2,8.545205E-3,3.3994485E-4,1.0443525E-3,3.8368746E-3,0E0,1.3681874E-4,5.8518723E-5,3.25219E-4,1.1807209E-3,1.4958233E-3,4.486181E-5,0E0,2.9404182E-5,0E0,0E0,2.126412E-4,6.795337E-4,1.8979525E-4,6.1474956E-4,7.384992E-5,0E0,1.6504899E-5,0E0,0E0,0E0,0E0,0E0,0E0,0E0,0E0,0E0,0E0,0E0,0E0,0E0,0E0],"parents":[2147483647,0,0,1,1,2,2,3,3,4,4,6,6,7,7,8,8,9,9,10,10,11,11,13,13,16,16,17,17,18,18,19,19,20,20,22,22],"right_children":[2,4,6,8,10,-1,12,14,16,18,20,22,-1,24,-1,-1,26,28,30,32,34,-1,36,-1,-1,-1,-1,-1,-1,-1,-1,-1,-1,-1,-1,-1,-1],"split_conditions":[8.006547E-1,1.752562E-1,2.7287462E-1,4.0341314E-2,3.8573605E-1,-0E0,9.7824985E-1,7.2394377E-1,5.7127997E-3,4.8012584E-1,5.1442426E-1,2.3115294E-1,-0E0,7.3333335E-1,-0E0,-0E0,7.223699E-2,1.7329084E0,6.2852263E-1,6.082597E-1,1.7012747E-1,-0E0,7.223699E-2,-2.1286572E-4,-0E0,-0E0,-9.855826E-5,-7.633056E-5,-0E0,-1.7745062E-5,7.92333E-6,3.8752696E-6,5.9206046E-5,-0E0,1.2211944E-4,-0E0,1.93958E-4],"split_indices":[3,3,30,3,30,0,7,15,11,36,32,32,0,20,0,0,24,25,38,4,1,0,24,0,0,0,0,0,0,0,0,0,0,0,0,0,0],"split_type":[0,0,0,0,0,0,0,0,0,0,0,0,0,0,0,0,0,0,0,0,0,0,0,0,0,0,0,0,0,0,0,0,0,0,0,0,0],"sum_hessian":[1.743E3,1.557E3,1.86E2,2.94E2,1.263E3,1.1E1,1.75E2,7.1E1,2.23E2,5.93E2,6.7E2,1.72E2,3E0,6.9E1,2E0,2E1,2.03E2,2.48E2,3.45E2,5.85E2,8.5E1,2E0,1.7E2,6.7E1,2E0,4E1,1.63E2,2.42E2,6E0,2.29E2,1.16E2,4.5E2,1.35E2,2E0,8.3E1,1E0,1.69E2],"tree_param":{"num_deleted":"0","num_feature":"40","num_nodes":"37","size_leaf_vector":"1"}},{"base_weights":[-0E0,-1.1736662E-3,7.973214E-3,-5.660527E-3,-0E0,-0E0,8.38204E-3,-9.575692E-3,-3.2528385E-3,-1.2976994E-3,2.1882183E-3,-0E0,8.58374E-3,-9.71156E-3,-0E0,-3.7093323E-3,-0E0,-3.2648987E-3,-3.540631E-5,1.0669166E-3,5.022984E-3,8.678296E-3,-0E0,-1.9580664E-4,-0E0,-0E0,-8.180554E-5,-7.363384E-5,-0E0,-1.1904634E-5,3.1951113E-5,-0E0,3.2975287E-5,-0E0,1.08919514E-4,-0E0,1.7477213E-4],"categories":[],"categories_nodes":[],"categories_segments":[],"categories_sizes":[],"default_left":[0,0,0,0,0,0,0,0,0,0,0,0,0,0,0,0,0,0,0,0,0,0,0,0,0,0,0,0,0,0,0,0,0,0,0,0,0],"id":26,"left_children":[1,3,5,7,9,-1,11,13,15,17,19,-1,21,23,-1,25,-1,27,29,31,33,35,-1,-1,-1,-1,-1,-1,-1,-1,-1,-1,-1,-1,-1,-1,-1],"loss_changes":[1.6067263E-2,8.043743E-3,4.8739836E-4,1.6647726E-3,3.4127003E-3,0E0,2.628509E-4,8.3905645E-5,3.4673442E-4,1.524791E-3,8.160337E-4,0E0,1.0050554E-4,6.0843304E-5,0E0,1.0984065E-4,0E0,6.8789744E-4,3.459211E-4,3.1223817E-4,2.7373293E-4,5.4205768E-5,0E0,0E0,0E0,0E0,0E0,0E0,0E0,0E0,0E0,0E0,0E0,0E0,0E0,0E0,0E0],"parents":[2147483647,0,0,1,1,2,2,3,3,4,4,6,6,7,7,8,8,9,9,10,10,12,12,13,13,15,15,17,17,18,18,19,19,20,20,21,21],"right_children":[2,4,6,8,10,-1,12,14,16,18,20,-1,22,24,-1,26,-1,28,30,32,34,36,-1,-1,-1,-1,-1,-1,-1,-1,-1,-1,-1,-1,-1,-1,-1],"split_conditions":[7.5177234E-1,2.0105658E-1,2.771359E-1,6.266646E-2,4.11045E-1,-0E0,2.8607398E-1,6.4893436E-1,6.2852263E-1,4.5826423E-1,5.0002164E-1,-0E0,9.7824985E-1,8.04517E-1,-0E0,6.658962E-2,-0E0,1.7329084E0,3.58165E-1,4.9252883E-1,3.9798516E-1,1.822974E-1,-0E0,-1.9580664E-4,-0E0,-0E0,-8.180554E-5,-7.363384E-5,-0E0,-1.1904634E-5,3.1951113E-5,-0E0,3.2975287E-5,-0E0,1.08919514E-4,-0E0,1.7477213E-4],"split_indices":[3,3,30,3,32,0,36,5,38,36,32,0,7,24,0,24,0,25,24,36,30,34,0,0,0,0,0,0,0,0,0,0,0,0,0,0,0],"split_type":[0,0,0,0,0,0,0,0,0,0,0,0,0,0,0,0,0,0,0,0,0,0,0,0,0,0,0,0,0,0,0,0,0,0,0,0,0],"sum_hessian":[1.729E3,1.51E3,2.19E2,3.15E2,1.195E3,1.4E1,2.05E2,1.03E2,2.12E2,7.46E2,4.49E2,6E0,1.99E2,1.01E2,2E0,1.88E2,2.4E1,2.6E2,4.86E2,3.48E2,1.01E2,1.96E2,3E0,1E2,1E0,2.7E1,1.61E2,2.55E2,5E0,4.08E2,7.8E1,8.8E1,2.6E2,6E0,9.5E1,2E0,1.94E2],"tree_param":{"num_deleted":"0","num_feature":"40","num_nodes":"37","size_leaf_vector":"1"}},{"base_weights":[5.1861025E-5,-9.6600794E-4,8.805499E-3,-4.950538E-3,2.2172483E-4,-0E0,9.136671E-3,-8.2734125E-3,-3.2449889E-3,-1.7566681E-3,1.7786567E-3,9.250639E-3,-0E0,-8.345279E-3,-0E0,-3.6781835E-3,-0E0,-3.550819E-3,-2.0225138E-4,9.1885333E-4,5.461686E-3,-0E0,9.439411E-3,-1.6984377E-4,-0E0,-7.651695E-5,-0E0,-7.979662E-5,-0E0,-1.6288146E-5,1.664802E-6,-0E0,5.6676792E-5,-0E0,1.15930714E-4,-0E0,1.9071084E-4],"categories":[],"categories_nodes":[],"categories_segments":[],"categories_sizes":[],"default_left":[0,0,0,0,0,0,0,0,0,0,0,0,0,0,0,0,0,0,0,0,0,0,0,0,0,0,0,0,0,0,0,0,0,0,0,0,0],"id":27,"left_children":[1,3,5,7,9,-1,11,13,15,17,19,21,-1,23,-1,25,-1,27,29,31,33,-1,35,-1,-1,-1,-1,-1,-1,-1,-1,-1,-1,-1,-1,-1,-1],"loss_changes":[1.6331596E-2,7.823639E-3,2.2258516E-4,9.5222704E-4,3.6338263E-3,0E0,1.2257136E-4,5.8150385E-5,4.5799697E-4,9.933041E-4,1.5356045E-3,9.3397684E-5,0E0,4.5847148E-5,0E0,1.9718497E-4,0E0,5.9179147E-4,1.2456553E-4,7.78309E-4,1.3834122E-4,0E0,4.0964223E-5,0E0,0E0,0E0,0E0,0E0,0E0,0E0,0E0,0E0,0E0,0E0,0E0,0E0,0E0],"parents":[2147483647,0,0,1,1,2,2,3,3,4,4,6,6,7,7,8,8,9,9,10,10,11,11,13,13,15,15,17,17,18,18,19,19,20,20,22,22],"right_children":[2,4,6,8,10,-1,12,14,16,18,20,22,-1,24,-1,26,-1,28,30,32,34,-1,36,-1,-1,-1,-1,-1,-1,-1,-1,-1,-1,-1,-1,-1,-1],"split_conditions":[8.006547E-1,2.1838804E-1,2.7287462E-1,6.266646E-2,3.8013235E-1,-0E0,9.7824985E-1,6.736872E-1,6.8113315E-1,4.71815E-1,5.481224E-1,2.7757466E-1,-0E0,9.072984E-2,-0E0,1.7329084E0,-0E0,1.7329084E0,5.619732E-1,5.0027466E-1,5.455224E-1,-0E0,1.4435653E-1,-1.6984377E-4,-0E0,-7.651695E-5,-0E0,-7.979662E-5,-0E0,-1.6288146E-5,1.664802E-6,-0E0,5.6676792E-5,-0E0,1.15930714E-4,-0E0,1.9071084E-4],"split_indices":[3,3,30,3,30,0,7,5,38,36,34,36,0,0,0,25,0,25,29,13,36,0,7,0,0,0,0,0,0,0,0,0,0,0,0,0,0],"split_type":[0,0,0,0,0,0,0,0,0,0,0,0,0,0,0,0,0,0,0,0,0,0,0,0,0,0,0,0,0,0,0,0,0,0,0,0,0],"sum_hessian":[1.743E3,1.552E3,1.91E2,3.75E2,1.177E3,1.1E1,1.8E2,1.06E2,2.69E2,4.9E2,6.87E2,1.77E2,3E0,1.05E2,1E0,2.43E2,2.6E1,1.97E2,2.93E2,5.8E2,1.07E2,6E0,1.71E2,1.02E2,3E0,2.38E2,5E0,1.93E2,4E0,2.04E2,8.9E1,4.23E2,1.57E2,8E0,9.9E1,3E0,1.68E2],"tree_param":{"num_deleted":"0","num_feature":"40","num_nodes":"37","size_leaf_vector":"1"}},{"base_weights":[8.129268E-6,-1.0244919E-3,8.76579E-3,-5.8386372E-3,-0E0,-0E0,9.100822E-3,-1.0836217E-2,-3.8961675E-3,-7.3812756E-4,4.1507836E-3,9.212925E-3,-0E0,-1.1086833E-2,-0E0,-0E0,-4.329061E-3,-2.5158818E-3,3.6244822E-4,-0E0,4.5089168E-3,-0E0,9.398227E-3,-2.262243E-4,-0E0,-9.304674E-5,-0E0,-6.5882705E-5,-0E0,-2.8074683E-6,3.7135756E-5,-0E0,1.014191E-4,1.9271416E-4,-0E0],"categories":[],"categories_nodes":[],"categories_segments":[],"categories_sizes":[],"default_left":[0,0,0,0,0,0,0,0,0,0,0,0,0,0,0,0,0,0,0,0,0,0,0,0,0,0,0,0,0,0,0,0,0,0,0],"id":28,"left_children":[1,3,5,7,9,-1,11,13,15,17,19,21,-1,23,-1,-1,25,27,29,-1,31,-1,33,-1,-1,-1,-1,-1,-1,-1,-1,-1,-1,-1,-1],"loss_changes":[1.6446184E-2,7.7583045E-3,3.2702647E-4,1.1541452E-3,3.9770845E-3,0E0,1.21071935E-4,9.4809104E-5,1.6227388E-4,2.3097675E-3,3.4666713E-4,9.080116E-5,0E0,4.5656227E-5,0E0,0E0,2.0376779E-4,9.441895E-4,6.4302125E-4,0E0,1.4212169E-4,0E0,4.3740496E-5,0E0,0E0,0E0,0E0,0E0,0E0,0E0,0E0,0E0,0E0,0E0,0E0],"parents":[2147483647,0,0,1,1,2,2,3,3,4,4,6,6,7,7,8,8,9,9,10,10,11,11,13,13,16,16,17,17,18,18,20,20,22,22],"right_children":[2,4,6,8,10,-1,12,14,16,18,20,22,-1,24,-1,-1,26,28,30,-1,32,-1,34,-1,-1,-1,-1,-1,-1,-1,-1,-1,-1,-1,-1],"split_conditions":[8.006547E-1,1.6365111E-1,2.7287462E-1,2.0518051E-2,4.6415135E-1,-0E0,9.7824985E-1,2.0065477E-1,6.712407E-2,4.9384108E-1,4.2216113E-1,2.7757466E-1,-0E0,5.745929E-1,-0E0,-0E0,4.8780024E-1,8.333333E-1,2.6810434E-1,-0E0,4.2085224E-1,-0E0,1.1397713E0,-2.262243E-4,-0E0,-9.304674E-5,-0E0,-6.5882705E-5,-0E0,-2.8074683E-6,3.7135756E-5,-0E0,1.014191E-4,1.9271416E-4,-0E0],"split_indices":[3,3,30,3,32,0,7,13,24,36,8,36,0,5,0,0,30,22,24,0,30,0,25,0,0,0,0,0,0,0,0,0,0,0,0],"split_type":[0,0,0,0,0,0,0,0,0,0,0,0,0,0,0,0,0,0,0,0,0,0,0,0,0,0,0,0,0,0,0,0,0,0,0],"sum_hessian":[1.731E3,1.539E3,1.92E2,2.74E2,1.265E3,1E1,1.82E2,6.1E1,2.13E2,1.069E3,1.96E2,1.79E2,3E0,5.9E1,2E0,3.2E1,1.81E2,4.43E2,6.26E2,1.3E1,1.83E2,6E0,1.73E2,5.7E1,2E0,1.66E2,1.5E1,3.45E2,9.8E1,4.19E2,2.07E2,3.3E1,1.5E2,1.65E2,8E0],"tree_param":{"num_deleted":"0","num_feature":"40","num_nodes":"35","size_leaf_vector":"1"}},{"base_weights":[-0E0,-1.1175724E-3,7.881001E-3,-4.9606594E-3,-0E0,-0E0,8.311236E-3,-1.0136184E-2,-3.5541088E-3,-3.504934E-3,8.68773E-4,-0E0,8.923758E-3,-0E0,-2.1883374E-4,-3.9373366E-3,-0E0,-3.7736269E-3,-0E0,8.5759064E-5,3.9494764E-3,9.170552E-3,-0E0,-0E0,-8.5707725E-5,-8.4562766E-5,-0E0,-6.88167E-6,3.5534096E-5,-0E0,9.973528E-5,-0E0,1.8478368E-4],"categories":[],"categories_nodes":[],"categories_segments":[],"categories_sizes":[],"default_left":[0,0,0,0,0,0,0,0,0,0,0,0,0,0,0,0,0,0,0,0,0,0,0,0,0,0,0,0,0,0,0,0,0],"id":29,"left_children":[1,3,5,7,9,-1,11,13,15,17,19,-1,21,-1,-1,23,-1,25,-1,27,29,31,-1,-1,-1,-1,-1,-1,-1,-1,-1,-1,-1],"loss_changes":[1.5377589E-2,6.2456145E-3,5.446505E-4,1.0045059E-3,3.7821305E-3,0E0,3.1146314E-4,9.576138E-5,4.541902E-4,4.0348317E-4,1.8684617E-3,0E0,4.6909787E-5,0E0,0E0,1.604883E-4,0E0,4.22596E-4,0E0,7.093554E-4,2.86069E-4,4.5337714E-5,0E0,0E0,0E0,0E0,0E0,0E0,0E0,0E0,0E0,0E0,0E0],"parents":[2147483647,0,0,1,1,2,2,3,3,4,4,6,6,7,7,8,8,9,9,10,10,12,12,15,15,17,17,19,19,20,20,21,21],"right_children":[2,4,6,8,10,-1,12,14,16,18,20,-1,22,-1,-1,24,-1,26,-1,28,30,32,-1,-1,-1,-1,-1,-1,-1,-1,-1,-1,-1],"split_conditions":[7.5325036E-1,2.0718461E-1,2.771359E-1,8.753177E-3,3.4163883E-1,-0E0,7.982358E-1,4.7218117E-1,4.7561112E-1,1.7329084E0,4.6415135E-1,-0E0,1.338346E0,-0E0,-2.1883374E-4,6.658962E-2,-0E0,7.386897E-1,-0E0,2.9290423E-1,3E-1,2.3115294E-1,-0E0,-0E0,-8.5707725E-5,-8.4562766E-5,-0E0,-6.88167E-6,3.5534096E-5,-0E0,9.973528E-5,-0E0,1.8478368E-4],"split_indices":[2,1,30,2,34,0,1,25,30,25,32,0,12,0,0,24,0,7,0,24,20,32,0,0,0,0,0,0,0,0,0,0,0],"split_type":[0,0,0,0,0,0,0,0,0,0,0,0,0,0,0,0,0,0,0,0,0,0,0,0,0,0,0,0,0,0,0,0,0],"sum_hessian":[1.736E3,1.52E3,2.16E2,3.3E2,1.19E3,1.4E1,2.02E2,5.4E1,2.76E2,2.49E2,9.41E2,2.3E1,1.79E2,7E0,4.7E1,2.54E2,2.2E1,2.43E2,6E0,7.77E2,1.64E2,1.7E2,9E0,3.1E1,2.23E2,2.17E2,2.6E1,5.73E2,2.04E2,5E1,1.14E2,2E0,1.68E2],"tree_param":{"num_deleted":"0","num_feature":"40","num_nodes":"33","size_leaf_vector":"1"}},{"base_weights":[4.1201233E-6,-9.899018E-4,7.6576048E-3,-5.1091653E-3,8.215854E-5,2.3090127E-3,9.10533E-3,-1.0093456E-2,-3.5442065E-3,-1.7681599E-3,1.5877315E-3,-0E0,2.8097774E-3,-0E0,9.419208E-3,-1.0314793E-2,-0E0,-3.8608045E-3,-0E0,-3.5840326E-3,-7.681697E-5,8.486945E-4,5.9345667E-3,-0E0,3.2273207E-3,-0E0,9.552263E-3,-2.1014777E-4,-0E0,-8.014534E-5,-0E0,-7.810315E-5,-0E0,-1.2550041E-5,7.742245E-6,-1.5774829E-5,2.7644965E-5,-0E0,1.2488046E-4,-0E0,6.805777E-5,1.9465195E-4,-0E0],"categories":[],"categories_nodes":[],"categories_segments":[],"categories_sizes":[],"default_left":[0,0,0,0,0,0,0,0,0,0,0,0,0,0,0,0,0,0,0,0,0,0,0,0,0,0,0,0,0,0,0,0,0,0,0,0,0,0,0,0,0,0,0],"id":30,"left_children":[1,3,5,7,9,11,13,15,17,19,21,-1,23,-1,25,27,-1,29,-1,31,33,35,37,-1,39,-1,41,-1,-1,-1,-1,-1,-1,-1,-1,-1,-1,-1,-1,-1,-1,-1,-1],"loss_changes":[1.3866156E-2,7.233255E-3,4.713768E-4,1.2057303E-3,3.3026398E-3,1.1688765E-4,1.6820896E-4,7.6304656E-5,3.8193655E-4,1.1846279E-3,1.5236061E-3,0E0,7.866835E-5,0E0,1.78474E-4,2.7826056E-5,0E0,2.1241372E-4,0E0,4.713165E-4,9.8626246E-5,5.916263E-4,1.4554802E-4,0E0,2.3463683E-5,0E0,1.11468136E-4,0E0,0E0,0E0,0E0,0E0,0E0,0E0,0E0,0E0,0E0,0E0,0E0,0E0,0E0,0E0,0E0],"parents":[2147483647,0,0,1,1,2,2,3,3,4,4,5,5,6,6,7,7,8,8,9,9,10,10,12,12,14,14,15,15,17,17,19,19,20,20,21,21,22,22,24,24,26,26],"right_children":[2,4,6,8,10,12,14,16,18,20,22,-1,24,-1,26,28,-1,30,-1,32,34,36,38,-1,40,-1,42,-1,-1,-1,-1,-1,-1,-1,-1,-1,-1,-1,-1,-1,-1,-1,-1],"split_conditions":[7.5177234E-1,2.0105658E-1,8.564401E-1,2.0518051E-2,3.8013235E-1,2.771359E-1,3.160204E-1,2.0065477E-1,4.8780024E-1,4.8012584E-1,4.9369222E-1,-0E0,3.237473E-1,-0E0,1.4028296E-2,5.745929E-1,-0E0,1.7329084E0,-0E0,7.012707E-1,3.4770364E-1,4.4176745E-1,3.8877904E-1,-0E0,8.695652E-2,-0E0,9.266105E-1,-2.1014777E-4,-0E0,-8.014534E-5,-0E0,-7.810315E-5,-0E0,-1.2550041E-5,7.742245E-6,-1.5774829E-5,2.7644965E-5,-0E0,1.2488046E-4,-0E0,6.805777E-5,1.9465195E-4,-0E0],"split_indices":[3,3,3,3,30,30,28,13,30,36,30,0,36,0,26,5,0,25,0,8,24,36,8,0,19,0,7,0,0,0,0,0,0,0,0,0,0,0,0,0,0,0,0],"split_type":[0,0,0,0,0,0,0,0,0,0,0,0,0,0,0,0,0,0,0,0,0,0,0,0,0,0,0,0,0,0,0,0,0,0,0,0,0,0,0,0,0,0,0],"sum_hessian":[1.733E3,1.523E3,2.1E2,3.33E2,1.19E3,6E1,1.5E2,6.3E1,2.7E2,5.04E2,6.86E2,5E0,5.5E1,8E0,1.42E2,6.1E1,2E0,2.53E2,1.7E1,2.14E2,2.9E2,6.07E2,7.9E1,6E0,4.9E1,2E0,1.4E2,5.9E1,2E0,2.48E2,5E0,2.11E2,3E0,2.31E2,5.9E1,1.03E2,5.04E2,4E0,7.5E1,3E0,4.6E1,1.36E2,4E0],"tree_param":{"num_deleted":"0","num_feature":"40","num_nodes":"43","size_leaf_vector":"1"}},{"base_weights":[4.2173204E-5,-1.0243489E-3,7.6141204E-3,-4.729586E-3,1.0945257E-4,5.281334E-3,1.1554775E-2,-9.882854E-3,-3.3707712E-3,-1.1709598E-3,1.9901758E-3,-0E0,5.671339E-3,2.3611826E-4,-0E0,-1.0100914E-2,-0E0,-3.8253271E-3,-0E0,-3.5233877E-3,-1.955292E-4,1.010529E-3,5.550222E-3,5.7846946E-3,-0E0,-2.057905E-4,-0E0,-8.047743E-5,-0E0,-8.325316E-5,-0E0,-1.1887274E-5,3.1144253E-5,-0E0,4.285812E-5,-0E0,1.17735304E-4,-0E0,1.17547526E-4],"categories":[],"categories_nodes":[],"categories_segments":[],"categories_sizes":[],"default_left":[0,0,0,0,0,0,0,0,0,0,0,0,0,0,0,0,0,0,0,0,0,0,0,0,0,0,0,0,0,0,0,0,0,0,0,0,0,0,0],"id":31,"left_children":[1,3,5,7,9,11,13,15,17,19,21,-1,23,-1,-1,25,-1,27,-1,29,31,33,35,37,-1,-1,-1,-1,-1,-1,-1,-1,-1,-1,-1,-1,-1,-1,-1],"loss_changes":[1.4815312E-2,6.8690605E-3,3.513014E-4,1.2882082E-3,2.8487523E-3,2.0526629E-4,1.2018159E-4,7.047597E-5,5.507516E-4,1.1235182E-3,1.071647E-3,0E0,5.5745244E-5,0E0,0E0,2.2848137E-5,0E0,2.3054192E-4,0E0,4.6184054E-4,2.4857518E-4,4.1400964E-4,8.459063E-5,4.9851835E-5,0E0,0E0,0E0,0E0,0E0,0E0,0E0,0E0,0E0,0E0,0E0,0E0,0E0,0E0,0E0],"parents":[2147483647,0,0,1,1,2,2,3,3,4,4,5,5,6,6,7,7,8,8,9,9,10,10,12,12,15,15,17,17,19,19,20,20,21,21,22,22,23,23],"right_children":[2,4,6,8,10,12,14,16,18,20,22,-1,24,-1,-1,26,-1,28,-1,30,32,34,36,38,-1,-1,-1,-1,-1,-1,-1,-1,-1,-1,-1,-1,-1,-1,-1],"split_conditions":[7.5177234E-1,2.1838804E-1,9.5626193E-1,2.0518051E-2,4.0475842E-1,3.2519913E-1,9.4983387E-1,2.0065477E-1,6.3385165E-1,3.2614678E-1,5.687248E-1,-0E0,4.3333334E-1,2.3611826E-4,-0E0,5.745929E-1,-0E0,6.128607E-1,-0E0,8.333333E-1,6.9374114E-1,4.2821103E-1,5.410526E-1,3.6057672E-1,-0E0,-2.057905E-4,-0E0,-8.047743E-5,-0E0,-8.325316E-5,-0E0,-1.1887274E-5,3.1144253E-5,-0E0,4.285812E-5,-0E0,1.17735304E-4,-0E0,1.17547526E-4],"split_indices":[3,3,3,3,32,28,7,13,38,34,34,0,20,0,0,5,0,12,0,22,8,13,36,17,0,0,0,0,0,0,0,0,0,0,0,0,0,0,0],"split_type":[0,0,0,0,0,0,0,0,0,0,0,0,0,0,0,0,0,0,0,0,0,0,0,0,0,0,0,0,0,0,0,0,0,0,0,0,0,0,0],"sum_hessian":[1.751E3,1.524E3,2.27E2,3.77E2,1.147E3,1.6E2,6.7E1,6.2E1,3.15E2,6.51E2,4.96E2,1.5E1,1.45E2,6.5E1,2E0,6E1,2E0,2.82E2,3.3E1,1.6E2,4.91E2,4.12E2,8.4E1,1.41E2,4E0,5.8E1,2E0,2.69E2,1.3E1,1.41E2,1.9E1,4.47E2,4.4E1,2.31E2,1.81E2,7E0,7.7E1,3E0,1.38E2],"tree_param":{"num_deleted":"0","num_feature":"40","num_nodes":"39","size_leaf_vector":"1"}},{"base_weights":[-0E0,-1.092674E-3,7.4990178E-3,-6.523805E-3,-2.3886267E-4,3.9470433E-3,9.944566E-3,-1.0035263E-2,-4.056707E-3,-3.6354319E-3,3.817655E-4,4.2530415E-3,-0E0,-0E0,1.01003805E-2,-1.0265882E-2,-0E0,-0E0,-4.289345E-3,-3.955603E-3,-0E0,-3.6100583E-4,2.528344E-3,4.375119E-3,-0E0,-0E0,1.0195229E-2,-2.0734666E-4,-0E0,-0E0,-8.8156485E-5,-8.6302556E-5,-0E0,-1.4492385E-5,4.8243313E-5,3.303698E-5,1.3372103E-4,9.0298985E-5,-0E0,2.0643916E-4,-0E0],"categories":[],"categories_nodes":[],"categories_segments":[],"categories_sizes":[],"default_left":[0,0,0,0,0,0,0,0,0,0,0,0,0,0,0,0,0,0,0,0,0,0,0,0,0,0,0,0,0,0,0,0,0,0,0,0,0,0,0,0,0],"id":32,"left_children":[1,3,5,7,9,11,13,15,17,19,21,23,-1,-1,25,27,-1,-1,29,31,-1,33,35,37,-1,-1,39,-1,-1,-1,-1,-1,-1,-1,-1,-1,-1,-1,-1,-1,-1],"loss_changes":[1.390059E-2,6.3521117E-3,4.391903E-4,1.9608345E-4,3.1240792E-3,1.3935787E-4,1.3952795E-4,7.4814074E-5,8.682278E-5,4.4947187E-4,1.9683165E-3,6.599387E-5,0E0,0E0,1.0395888E-4,1.6020611E-5,0E0,0E0,4.6967063E-5,4.024133E-4,0E0,6.215326E-4,3.1038024E-4,5.942618E-5,0E0,0E0,6.5125525E-5,0E0,0E0,0E0,0E0,0E0,0E0,0E0,0E0,0E0,0E0,0E0,0E0,0E0,0E0],"parents":[2147483647,0,0,1,1,2,2,3,3,4,4,5,5,6,6,7,7,8,8,9,9,10,10,11,11,14,14,15,15,18,18,19,19,21,21,22,22,23,23,26,26],"right_children":[2,4,6,8,10,12,14,16,18,20,22,24,-1,-1,26,28,-1,-1,30,32,-1,34,36,38,-1,-1,40,-1,-1,-1,-1,-1,-1,-1,-1,-1,-1,-1,-1,-1,-1],"split_conditions":[7.6493484E-1,1.1652084E-1,9.0262616E-1,2.0518051E-2,3.2947537E-1,4.3333334E-1,7.1056163E-1,2.0065477E-1,9.710882E-3,1.7329084E0,4.2266092E-1,9.951927E-1,-0E0,-0E0,1.1011031E-1,5.745929E-1,-0E0,-0E0,7.420055E-2,8.1469274E-1,-0E0,7.012707E-1,5.4667753E-1,9.7846186E-1,-0E0,-0E0,1.1397713E0,-2.0734666E-4,-0E0,-0E0,-8.8156485E-5,-8.6302556E-5,-0E0,-1.4492385E-5,4.8243313E-5,3.303698E-5,1.3372103E-4,9.0298985E-5,-0E0,2.0643916E-4,-0E0],"split_indices":[3,3,3,3,34,20,37,13,9,25,30,7,0,0,30,5,0,0,15,7,0,8,30,31,0,0,25,0,0,0,0,0,0,0,0,0,0,0,0,0,0],"split_type":[0,0,0,0,0,0,0,0,0,0,0,0,0,0,0,0,0,0,0,0,0,0,0,0,0,0,0,0,0,0,0,0,0,0,0,0,0,0,0,0,0],"sum_hessian":[1.729E3,1.515E3,2.14E2,1.89E2,1.326E3,1.05E2,1.09E2,6E1,1.29E2,2.29E2,1.097E3,9.8E1,7E0,2E0,1.07E2,5.8E1,2E0,9E0,1.2E2,2.22E2,7E0,7.81E2,3.16E2,9.6E1,2E0,1E0,1.06E2,5.7E1,1E0,4E0,1.16E2,2.08E2,1.4E1,7.23E2,5.8E1,2.82E2,3.4E1,9.3E1,3E0,1.04E2,2E0],"tree_param":{"num_deleted":"0","num_feature":"40","num_nodes":"41","size_leaf_vector":"1"}},{"base_weights":[5.3729455E-5,-1.1349737E-3,6.2531615E-3,-5.2483133E-3,-9.949434E-7,2.5614596E-3,8.568252E-3,-9.17858E-3,-3.4479133E-3,-3.4728317E-4,9.972418E-3,-0E0,3.6266956E-3,8.781519E-3,-0E0,-9.2814015E-3,-0E0,-0E0,-3.7231222E-3,-2.4174787E-3,7.9942925E-4,-0E0,1.2976065E-2,-0E0,3.9507463E-3,9.040963E-3,-0E0,-1.8698904E-4,-0E0,-0E0,-8.100763E-5,-8.95552E-5,-2.1203354E-5,1.1884317E-6,9.3944815E-5,-0E0,2.73715E-4,-0E0,8.241816E-5,-0E0,1.8295461E-4],"categories":[],"categories_nodes":[],"categories_segments":[],"categories_sizes":[],"default_left":[0,0,0,0,0,0,0,0,0,0,0,0,0,0,0,0,0,0,0,0,0,0,0,0,0,0,0,0,0,0,0,0,0,0,0,0,0,0,0,0,0],"id":33,"left_children":[1,3,5,7,9,11,13,15,17,19,21,-1,23,25,-1,27,-1,-1,29,31,33,-1,35,-1,37,39,-1,-1,-1,-1,-1,-1,-1,-1,-1,-1,-1,-1,-1,-1,-1],"loss_changes":[1.3311994E-2,6.210515E-3,1.3692426E-3,7.789871E-4,3.019584E-3,3.374149E-4,1.4042947E-4,5.43138E-5,1.7080619E-4,2.8320225E-3,4.8354105E-4,0E0,3.6147656E-5,1.5378557E-4,0E0,5.140435E-6,0E0,0E0,1.0119425E-4,6.4952346E-4,1.5229511E-3,0E0,1.9113021E-4,0E0,4.0577957E-5,1.2393389E-4,0E0,0E0,0E0,0E0,0E0,0E0,0E0,0E0,0E0,0E0,0E0,0E0,0E0,0E0,0E0],"parents":[2147483647,0,0,1,1,2,2,3,3,4,4,5,5,6,6,7,7,8,8,9,9,10,10,12,12,13,13,15,15,18,18,19,19,20,20,22,22,24,24,25,25],"right_children":[2,4,6,8,10,12,14,16,18,20,22,-1,24,26,-1,28,-1,-1,30,32,34,-1,36,-1,38,40,-1,-1,-1,-1,-1,-1,-1,-1,-1,-1,-1,-1,-1,-1,-1],"split_conditions":[6.697062E-1,1.752562E-1,8.564401E-1,4.0341314E-2,1.7329084E0,3.637927E-1,9.4983387E-1,8.438431E-1,5.7127997E-3,3.725283E-1,2.2659384E-1,-0E0,2.7612916E-1,1.338346E0,-0E0,6.4893436E-1,-0E0,-0E0,4.417328E-2,3.2864583E-1,6.965289E-1,-0E0,1.9445063E-1,-0E0,3.1005847E-1,1.7734757E-1,-0E0,-1.8698904E-4,-0E0,-0E0,-8.100763E-5,-8.95552E-5,-2.1203354E-5,1.1884317E-6,9.3944815E-5,-0E0,2.73715E-4,-0E0,8.241816E-5,-0E0,1.8295461E-4],"split_indices":[3,3,3,3,25,30,7,15,11,32,9,0,38,12,0,5,0,0,15,30,36,0,18,0,8,30,0,0,0,0,0,0,0,0,0,0,0,0,0,0,0],"split_type":[0,0,0,0,0,0,0,0,0,0,0,0,0,0,0,0,0,0,0,0,0,0,0,0,0,0,0,0,0,0,0,0,0,0,0,0,0,0,0,0,0],"sum_hessian":[1.735E3,1.443E3,2.92E2,2.92E2,1.151E3,1.3E2,1.62E2,7.3E1,2.19E2,1.123E3,2.8E1,4E1,9E1,1.56E2,6E0,7.2E1,1E0,1.9E1,2E2,4.31E2,6.92E2,9E0,1.9E1,1.2E1,7.8E1,1.49E2,7E0,7.1E1,1E0,2.5E1,1.75E2,1.41E2,2.9E2,6.04E2,8.8E1,1E0,1.8E1,4E0,7.4E1,2E0,1.47E2],"tree_param":{"num_deleted":"0","num_feature":"40","num_nodes":"41","size_leaf_vector":"1"}},{"base_weights":[8.524517E-6,-1.163375E-3,6.0845613E-3,-7.0880405E-3,-3.856478E-4,3.4656194E-3,9.636946E-3,-7.4656503E-3,-0E0,-7.0220395E-4,8.936123E-3,-0E0,3.914959E-3,-0E0,9.791623E-3,-7.596487E-3,-0E0,-4.1537303E-3,-0E0,-0E0,1.027713E-2,-0E0,4.000532E-3,-0E0,9.983606E-3,-1.5545325E-4,-0E0,-9.086293E-5,-0E0,-1.1037177E-5,5.6425077E-5,-0E0,2.2515049E-4,8.572007E-5,-0E0,2.022957E-4,-0E0],"categories":[],"categories_nodes":[],"categories_segments":[],"categories_sizes":[],"default_left":[0,0,0,0,0,0,0,0,0,0,0,0,0,0,0,0,0,0,0,0,0,0,0,0,0,0,0,0,0,0,0,0,0,0,0,0,0],"id":34,"left_children":[1,3,5,7,9,11,13,15,-1,17,19,-1,21,-1,23,25,-1,27,29,-1,31,-1,33,-1,35,-1,-1,-1,-1,-1,-1,-1,-1,-1,-1,-1,-1],"loss_changes":[1.28319105E-2,5.880484E-3,1.391571E-3,2.2223871E-4,2.9835952E-3,3.5960646E-4,1.328038E-4,2.2016E-4,0E0,2.8653876E-3,4.0200585E-4,0E0,6.7137415E-5,0E0,1.0341313E-4,1.9782968E-4,0E0,3.538716E-4,1.5466955E-3,0E0,2.1095295E-4,0E0,6.439374E-5,0E0,6.6941604E-5,0E0,0E0,0E0,0E0,0E0,0E0,0E0,0E0,0E0,0E0,0E0,0E0],"parents":[2147483647,0,0,1,1,2,2,3,3,4,4,5,5,6,6,7,7,9,9,10,10,12,12,14,14,15,15,17,17,18,18,20,20,22,22,24,24],"right_children":[2,4,6,8,10,12,14,16,-1,18,20,-1,22,-1,24,26,-1,28,30,-1,32,-1,34,-1,36,-1,-1,-1,-1,-1,-1,-1,-1,-1,-1,-1,-1],"split_conditions":[6.697062E-1,8.481304E-2,9.0262616E-1,1E0,1.7329084E0,2.9995382E-1,7.1056163E-1,8.571751E-2,-0E0,3.334068E-1,2.7123278E-1,-0E0,1.8932514E-1,-0E0,3.5126838E-1,7.248793E-1,-0E0,6.035311E-1,7.110744E-1,-0E0,1.7391305E-1,-0E0,4.3333334E-1,-0E0,1.1397713E0,-1.5545325E-4,-0E0,-9.086293E-5,-0E0,-1.1037177E-5,5.6425077E-5,-0E0,2.2515049E-4,8.572007E-5,-0E0,2.022957E-4,-0E0],"split_indices":[3,3,3,20,25,36,37,2,0,30,37,0,30,0,38,5,0,36,38,0,19,0,20,0,25,0,0,0,0,0,0,0,0,0,0,0,0],"split_type":[0,0,0,0,0,0,0,0,0,0,0,0,0,0,0,0,0,0,0,0,0,0,0,0,0,0,0,0,0,0,0,0,0,0,0,0,0],"sum_hessian":[1.731E3,1.438E3,2.93E2,1.51E2,1.287E3,1.86E2,1.07E2,1.4E2,1.1E1,1.256E3,3.1E1,1.7E1,1.69E2,2E0,1.05E2,1.39E2,1E0,2.01E2,1.055E3,4E0,2.7E1,3E0,1.66E2,3E0,1.02E2,1.36E2,3E0,1.85E2,1.6E1,8.96E2,1.59E2,3E0,2.4E1,1.48E2,1.8E1,1E2,2E0],"tree_param":{"num_deleted":"0","num_feature":"40","num_nodes":"37","size_leaf_vector":"1"}},{"base_weights":[-2.5431274E-5,-1.1265764E-3,6.652101E-3,-4.8742387E-3,-0E0,2.0132768E-3,8.058053E-3,-7.970871E-3,-2.8618772E-3,-1.2542747E-3,1.8899275E-3,-0E0,2.5928826E-3,8.472893E-3,-0E0,-8.193346E-3,-0E0,-3.189221E-3,-0E0,-2.9302214E-3,-5.4138436E-5,9.2675746E-4,5.055475E-3,-0E0,2.8308963E-3,8.732312E-3,-0E0,-1.6531075E-4,-0E0,-6.701816E-5,-0E0,-6.988564E-5,-0E0,-8.408693E-6,3.2437467E-5,-0E0,3.0271509E-5,-0E0,1.1020864E-4,5.8429567E-5,-0E0,-0E0,1.765932E-4],"categories":[],"categories_nodes":[],"categories_segments":[],"categories_sizes":[],"default_left":[0,0,0,0,0,0,0,0,0,0,0,0,0,0,0,0,0,0,0,0,0,0,0,0,0,0,0,0,0,0,0,0,0,0,0,0,0,0,0,0,0,0,0],"id":35,"left_children":[1,3,5,7,9,11,13,15,17,19,21,-1,23,25,-1,27,-1,29,-1,31,33,35,37,-1,39,41,-1,-1,-1,-1,-1,-1,-1,-1,-1,-1,-1,-1,-1,-1,-1,-1,-1],"loss_changes":[1.2425514E-2,6.0909744E-3,5.2234996E-4,1.0001753E-3,2.7786372E-3,1.2766189E-4,1.2646243E-4,1.3783807E-4,2.6457815E-4,1.189815E-3,7.7522174E-4,0E0,5.7286874E-5,1.4019385E-4,0E0,6.119395E-5,0E0,1.6380753E-4,0E0,4.923139E-4,1.6723717E-4,3.0133364E-4,2.375457E-4,0E0,1.4193676E-5,9.0257265E-5,0E0,0E0,0E0,0E0,0E0,0E0,0E0,0E0,0E0,0E0,0E0,0E0,0E0,0E0,0E0,0E0,0E0],"parents":[2147483647,0,0,1,1,2,2,3,3,4,4,5,5,6,6,7,7,8,8,9,9,10,10,12,12,13,13,15,15,17,17,19,19,20,20,21,21,22,22,24,24,25,25],"right_children":[2,4,6,8,10,12,14,16,18,20,22,-1,24,26,-1,28,-1,30,-1,32,34,36,38,-1,40,42,-1,-1,-1,-1,-1,-1,-1,-1,-1,-1,-1,-1,-1,-1,-1,-1,-1],"split_conditions":[7.351611E-1,2.0105658E-1,8.564401E-1,6.266646E-2,4.11045E-1,2.995991E-1,8.7795097E-1,7.93129E-1,4.8780024E-1,3.5421985E-1,5.1740557E-1,-0E0,3.237473E-1,1.338346E0,-0E0,6.736872E-1,-0E0,1.7329084E0,-0E0,5.825004E-1,6.9374114E-1,4.9976492E-1,4.057597E-1,-0E0,6.007047E-1,1.4435653E-1,-0E0,-1.6531075E-4,-0E0,-6.701816E-5,-0E0,-6.988564E-5,-0E0,-8.408693E-6,3.2437467E-5,-0E0,3.0271509E-5,-0E0,1.1020864E-4,5.8429567E-5,-0E0,-0E0,1.765932E-4],"split_indices":[3,3,3,3,32,30,7,24,30,30,32,0,36,12,0,5,0,25,0,36,8,36,8,0,34,7,0,0,0,0,0,0,0,0,0,0,0,0,0,0,0,0,0],"split_type":[0,0,0,0,0,0,0,0,0,0,0,0,0,0,0,0,0,0,0,0,0,0,0,0,0,0,0,0,0,0,0,0,0,0,0,0,0,0,0,0,0,0,0],"sum_hessian":[1.763E3,1.527E3,2.36E2,3.37E2,1.19E3,7.2E1,1.64E2,1.12E2,2.25E2,7.39E2,4.51E2,1E1,6.2E1,1.5E2,1.4E1,1.08E2,4E0,2.07E2,1.8E1,2.73E2,4.66E2,3.71E2,8E1,3E0,5.9E1,1.43E2,7E0,1.07E2,1E0,2.02E2,5E0,2.32E2,4.1E1,4.32E2,3.4E1,1.01E2,2.7E2,5E0,7.5E1,5.7E1,2E0,2E0,1.41E2],"tree_param":{"num_deleted":"0","num_feature":"40","num_nodes":"43","size_leaf_vector":"1"}},{"base_weights":[-0E0,-1.135942E-3,5.692324E-3,-5.1384037E-3,-1.0013896E-4,3.231625E-3,9.152342E-3,-9.400811E-3,-3.372364E-3,-6.1301043E-4,5.1968372E-3,-0E0,3.6788792E-3,-0E0,9.4556045E-3,-9.528572E-3,-0E0,-0E0,-3.781194E-3,-3.2695008E-3,-0E0,-0E0,5.632437E-3,-0E0,4.2414633E-3,9.541343E-3,-0E0,-1.941163E-4,-0E0,-7.862388E-5,-0E0,-7.663837E-5,-0E0,-3.0036276E-6,1.2317683E-4,-0E0,1.3361352E-4,9.505011E-5,-0E0,1.9339612E-4,-0E0],"categories":[],"categories_nodes":[],"categories_segments":[],"categories_sizes":[],"default_left":[0,0,0,0,0,0,0,0,0,0,0,0,0,0,0,0,0,0,0,0,0,0,0,0,0,0,0,0,0,0,0,0,0,0,0,0,0,0,0,0,0],"id":36,"left_children":[1,3,5,7,9,11,13,15,17,19,21,-1,23,-1,25,27,-1,-1,29,31,33,-1,35,-1,37,39,-1,-1,-1,-1,-1,-1,-1,-1,-1,-1,-1,-1,-1,-1,-1],"loss_changes":[1.1486845E-2,5.46211E-3,1.2607025E-3,7.7611953E-4,2.7178712E-3,3.633434E-4,2.4053454E-4,6.398652E-5,1.5404704E-4,1.6988865E-3,2.4705962E-4,0E0,1.5012501E-4,0E0,7.5096264E-5,2.6372261E-5,0E0,0E0,1.6302872E-4,5.078225E-4,7.023864E-4,0E0,1.528454E-4,0E0,2.1434203E-4,6.22496E-5,0E0,0E0,0E0,0E0,0E0,0E0,0E0,0E0,0E0,0E0,0E0,0E0,0E0,0E0,0E0],"parents":[2147483647,0,0,1,1,2,2,3,3,4,4,5,5,6,6,7,7,8,8,9,9,10,10,12,12,14,14,15,15,18,18,19,19,20,20,22,22,24,24,25,25],"right_children":[2,4,6,8,10,12,14,16,18,20,22,-1,24,-1,26,28,-1,-1,30,32,34,-1,36,-1,38,40,-1,-1,-1,-1,-1,-1,-1,-1,-1,-1,-1,-1,-1,-1,-1],"split_conditions":[6.697062E-1,1.6365111E-1,9.0262616E-1,2.0518051E-2,5.1442426E-1,2.5003424E-1,3.160204E-1,2.0065477E-1,6.712407E-2,3.278182E-1,4.057597E-1,-0E0,3.6941904E-1,-0E0,9.7824985E-1,5.745929E-1,-0E0,-0E0,7.207403E-1,1.0425973E0,1.7329084E0,-0E0,3E-1,-0E0,4.3333334E-1,1.1397713E0,-0E0,-1.941163E-4,-0E0,-7.862388E-5,-0E0,-7.663837E-5,-0E0,-3.0036276E-6,1.2317683E-4,-0E0,1.3361352E-4,9.505011E-5,-0E0,1.9339612E-4,-0E0],"split_indices":[3,3,3,3,32,32,28,13,24,32,8,0,39,0,7,5,0,0,38,4,25,0,20,0,20,25,0,0,0,0,0,0,0,0,0,0,0,0,0,0,0],"split_type":[0,0,0,0,0,0,0,0,0,0,0,0,0,0,0,0,0,0,0,0,0,0,0,0,0,0,0,0,0,0,0,0,0,0,0,0,0,0,0,0,0],"sum_hessian":[1.739E3,1.443E3,2.96E2,2.76E2,1.167E3,1.91E2,1.05E2,6.3E1,2.13E2,1.082E3,8.5E1,1.7E1,1.74E2,4E0,1.01E2,6.2E1,1E0,3.3E1,1.8E2,1.96E2,8.86E2,5E0,8E1,3.5E1,1.39E2,1E2,1E0,6E1,2E0,1.77E2,3E0,1.77E2,1.9E1,8.69E2,1.7E1,2E1,6E1,1.2E2,1.9E1,9.8E1,2E0],"tree_param":{"num_deleted":"0","num_feature":"40","num_nodes":"41","size_leaf_vector":"1"}},{"base_weights":[1.0909488E-6,-1.063423E-3,5.458731E-3,-6.5753385E-3,-3.8256362E-4,2.2588365E-3,7.599522E-3,-6.947954E-3,-0E0,-1.0679034E-3,2.7516081E-3,-0E0,3.5800927E-3,7.837604E-3,-0E0,-7.198858E-3,-0E0,-3.5271586E-3,-2.7653636E-4,-0E0,3.6847815E-3,3.6575485E-3,-0E0,8.297766E-3,-0E0,-1.4811539E-4,-0E0,-0E0,-7.4426425E-5,-1.3316792E-5,5.4708722E-5,1.3282597E-5,1.0401563E-4,-0E0,7.490583E-5,-0E0,1.6809562E-4],"categories":[],"categories_nodes":[],"categories_segments":[],"categories_sizes":[],"default_left":[0,0,0,0,0,0,0,0,0,0,0,0,0,0,0,0,0,0,0,0,0,0,0,0,0,0,0,0,0,0,0,0,0,0,0,0,0],"id":37,"left_children":[1,3,5,7,9,11,13,15,-1,17,19,-1,21,23,-1,25,-1,27,29,-1,31,33,-1,35,-1,-1,-1,-1,-1,-1,-1,-1,-1,-1,-1,-1,-1],"loss_changes":[1.0536844E-2,4.7020297E-3,1.0452382E-3,5.2244077E-4,2.6226363E-3,4.1357358E-4,1.5805196E-4,2.3071142E-4,0E0,1.7438765E-3,7.8165834E-4,0E0,3.5954872E-5,1.720665E-4,0E0,1.2768153E-4,0E0,8.146721E-5,8.009274E-4,0E0,2.0227488E-4,1.44292135E-5,0E0,1.07171945E-4,0E0,0E0,0E0,0E0,0E0,0E0,0E0,0E0,0E0,0E0,0E0,0E0,0E0],"parents":[2147483647,0,0,1,1,2,2,3,3,4,4,5,5,6,6,7,7,9,9,10,10,12,12,13,13,15,15,17,17,18,18,20,20,21,21,23,23],"right_children":[2,4,6,8,10,12,14,16,-1,18,20,-1,22,24,-1,26,-1,28,30,-1,32,34,-1,36,-1,-1,-1,-1,-1,-1,-1,-1,-1,-1,-1,-1,-1],"split_conditions":[6.572036E-1,2.6635405E-1,8.697729E-1,1.7329084E0,4.4929716E-1,3.8013235E-1,1.3126665E0,6.3385165E-1,-0E0,1.9957472E-1,1.4860179E-1,-0E0,9.8398924E-1,8.7795097E-1,-0E0,6.792732E-1,-0E0,1.2824892E-1,7.012707E-1,-0E0,2.1767394E-1,3.1005847E-1,-0E0,1.7734757E-1,-0E0,-1.4811539E-4,-0E0,-0E0,-7.4426425E-5,-1.3316792E-5,5.4708722E-5,1.3282597E-5,1.0401563E-4,-0E0,7.490583E-5,-0E0,1.6809562E-4],"split_indices":[2,34,1,25,30,30,12,38,0,1,1,0,14,7,0,17,0,16,8,0,15,8,0,30,0,0,0,0,0,0,0,0,0,0,0,0,0],"split_type":[0,0,0,0,0,0,0,0,0,0,0,0,0,0,0,0,0,0,0,0,0,0,0,0,0,0,0,0,0,0,0,0,0,0,0,0,0],"sum_hessian":[1.736E3,1.438E3,2.98E2,1.41E2,1.297E3,1.39E2,1.59E2,1.37E2,4E0,1.091E3,2.06E2,5.2E1,8.7E1,1.52E2,7E0,1.32E2,5E0,2.34E2,8.57E2,3.4E1,1.72E2,8.6E1,1E0,1.38E2,1.4E1,1.27E2,5E0,1.8E1,2.16E2,7.89E2,6.8E1,8E1,9.2E1,3E0,8.3E1,2E0,1.36E2],"tree_param":{"num_deleted":"0","num_feature":"40","num_nodes":"37","size_leaf_vector":"1"}},{"base_weights":[3.0995747E-5,-1.0865834E-3,5.2782088E-3,-4.1667633E-3,-0E0,3.2409471E-3,9.405922E-3,-8.985394E-3,-2.930807E-3,-1.593302E-4,9.109388E-3,-0E0,3.6499235E-3,9.503762E-3,-0E0,-9.193462E-3,-0E0,-3.366742E-3,-0E0,-9.299499E-4,2.809444E-3,-0E0,1.2396983E-2,-0E0,4.101592E-3,-0E0,1.9189778E-4,-1.8739203E-4,-0E0,-7.305834E-5,-0E0,-6.212394E-5,-1.4137618E-6,-0E0,6.275099E-5,-0E0,2.6363425E-4,9.048863E-5,-0E0],"categories":[],"categories_nodes":[],"categories_segments":[],"categories_sizes":[],"default_left":[0,0,0,0,0,0,0,0,0,0,0,0,0,0,0,0,0,0,0,0,0,0,0,0,0,0,0,0,0,0,0,0,0,0,0,0,0,0,0],"id":38,"left_children":[1,3,5,7,9,11,13,15,17,19,21,-1,23,25,-1,27,-1,29,-1,31,33,-1,35,-1,37,-1,-1,-1,-1,-1,-1,-1,-1,-1,-1,-1,-1,-1,-1],"loss_changes":[1.058165E-2,5.050785E-3,1.3957825E-3,1.0868693E-3,2.182942E-3,4.0070596E-4,7.43391E-5,6.547244E-5,5.20922E-4,2.1070347E-3,6.0882815E-4,0E0,1.401077E-4,6.109476E-5,0E0,2.0601787E-5,0E0,3.7509273E-4,0E0,1.221074E-3,1.7402729E-4,0E0,1.8754532E-4,0E0,7.242081E-5,0E0,0E0,0E0,0E0,0E0,0E0,0E0,0E0,0E0,0E0,0E0,0E0,0E0,0E0],"parents":[2147483647,0,0,1,1,2,2,3,3,4,4,5,5,6,6,7,7,8,8,9,9,10,10,12,12,13,13,15,15,17,17,19,19,20,20,22,22,24,24],"right_children":[2,4,6,8,10,12,14,16,18,20,22,-1,24,26,-1,28,-1,30,-1,32,34,-1,36,-1,38,-1,-1,-1,-1,-1,-1,-1,-1,-1,-1,-1,-1,-1,-1],"split_conditions":[6.4794916E-1,2.2074883E-1,9.248671E-1,2.0518051E-2,1.7329084E0,2.5003424E-1,9.7824985E-1,2.0065477E-1,6.3385165E-1,6.3231236E-1,2.2659384E-1,-0E0,3.6941904E-1,2.9546E-1,-0E0,5.555387E-1,-0E0,6.128607E-1,-0E0,3.907638E-1,5.054257E-1,-0E0,1.6000046E-1,-0E0,4.3333334E-1,-0E0,1.9189778E-4,-1.8739203E-4,-0E0,-7.305834E-5,-0E0,-6.212394E-5,-1.4137618E-6,-0E0,6.275099E-5,-0E0,2.6363425E-4,9.048863E-5,-0E0],"split_indices":[3,3,3,3,25,32,7,13,38,36,9,0,39,38,0,5,0,12,0,28,38,0,35,0,20,0,0,0,0,0,0,0,0,0,0,0,0,0,0],"split_type":[0,0,0,0,0,0,0,0,0,0,0,0,0,0,0,0,0,0,0,0,0,0,0,0,0,0,0,0,0,0,0,0,0,0,0,0,0,0,0],"sum_hessian":[1.731E3,1.412E3,3.19E2,3.86E2,1.026E3,2.31E2,8.8E1,6.1E1,3.25E2,1.001E3,2.5E1,1.9E1,2.12E2,8.7E1,1E0,5.9E1,2E0,2.92E2,3.3E1,8.22E2,1.79E2,8E0,1.7E1,3.6E1,1.76E2,1E0,8.6E1,5.7E1,2E0,2.76E2,1.6E1,1.99E2,6.23E2,1.8E1,1.61E2,1E0,1.6E1,1.48E2,2.8E1],"tree_param":{"num_deleted":"0","num_feature":"40","num_nodes":"39","size_leaf_vector":"1"}},{"base_weights":[-0E0,-1.0298425E-3,5.286186E-3,-6.0889907E-3,-2.2583503E-4,2.428153E-3,7.7796313E-3,-6.2861037E-3,-0E0,-3.6571235E-3,3.5015732E-4,-0E0,2.8996388E-3,8.045396E-3,-0E0,-0E0,-6.647957E-3,-4.217059E-3,-0E0,-7.506026E-5,4.3257712E-3,-0E0,3.2991678E-3,8.164008E-3,-0E0,-1.4116103E-4,-0E0,-8.885429E-5,-0E0,-1.6955475E-5,1.947102E-5,-0E0,1.0201379E-4,-0E0,6.669023E-5,1.655784E-4,-0E0],"categories":[],"categories_nodes":[],"categories_segments":[],"categories_sizes":[],"default_left":[0,0,0,0,0,0,0,0,0,0,0,0,0,0,0,0,0,0,0,0,0,0,0,0,0,0,0,0,0,0,0,0,0,0,0,0,0],"id":39,"left_children":[1,3,5,7,9,11,13,15,-1,17,19,-1,21,23,-1,-1,25,27,-1,29,31,-1,33,35,-1,-1,-1,-1,-1,-1,-1,-1,-1,-1,-1,-1,-1],"loss_changes":[9.424707E-3,5.1838006E-3,9.770887E-4,2.390584E-4,2.806425E-3,2.641101E-4,1.0205805E-4,1.9562477E-4,0E0,4.9482915E-4,2.1970407E-3,0E0,1.567346E-4,1.0702759E-4,0E0,0E0,1.02263875E-4,2.7670013E-4,0E0,7.3775306E-4,4.374811E-4,0E0,6.1312458E-6,9.532645E-5,0E0,0E0,0E0,0E0,0E0,0E0,0E0,0E0,0E0,0E0,0E0,0E0,0E0],"parents":[2147483647,0,0,1,1,2,2,3,3,4,4,5,5,6,6,7,7,9,9,10,10,12,12,13,13,16,16,17,17,19,19,20,20,22,22,23,23],"right_children":[2,4,6,8,10,12,14,16,-1,18,20,-1,22,24,-1,-1,26,28,-1,30,32,-1,34,36,-1,-1,-1,-1,-1,-1,-1,-1,-1,-1,-1,-1,-1],"split_conditions":[6.697062E-1,1.1652084E-1,8.769559E-1,7.248793E-1,3.334068E-1,2.5003424E-1,1.1397713E0,1.14457235E-1,-0E0,6.035311E-1,2E0,-0E0,3.8877904E-1,9.7824985E-1,-0E0,-0E0,2.8243446E-1,1.7329084E0,-0E0,4.7702917E-1,2.2403072E-1,-0E0,3.0744785E-1,1.2945732E0,-0E0,-1.4116103E-4,-0E0,-8.885429E-5,-0E0,-1.6955475E-5,1.947102E-5,-0E0,1.0201379E-4,-0E0,6.669023E-5,1.655784E-4,-0E0],"split_indices":[3,3,3,5,30,32,25,4,0,36,21,0,8,7,0,0,17,25,0,3,15,0,5,12,0,0,0,0,0,0,0,0,0,0,0,0,0],"split_type":[0,0,0,0,0,0,0,0,0,0,0,0,0,0,0,0,0,0,0,0,0,0,0,0,0,0,0,0,0,0,0,0,0,0,0,0,0],"sum_hessian":[1.711E3,1.429E3,2.82E2,1.78E2,1.251E3,1.51E2,1.31E2,1.73E2,5E0,2.04E2,1.047E3,1.4E1,1.37E2,1.24E2,7E0,1.4E1,1.59E2,1.81E2,2.3E1,9.24E2,1.23E2,1.7E1,1.2E2,1.22E2,2E0,1.43E2,1.6E1,1.77E2,4E0,5.87E2,3.37E2,1.8E1,1.05E2,2E0,1.18E2,1.2E2,2E0],"tree_param":{"num_deleted":"0","num_feature":"40","num_nodes":"37","size_leaf_vector":"1"}},{"base_weights":[2.5196981E-5,-9.7158004E-4,5.284131E-3,-3.9555663E-3,2.7284143E-5,2.2825915E-3,7.1326885E-3,-8.28296E-3,-2.6501678E-3,-7.8387355E-4,2.2329323E-3,-0E0,2.6820076E-3,-0E0,7.460534E-3,-8.385056E-3,-0E0,-0E0,-3.0228356E-3,-2.5542185E-3,-0E0,-0E0,3.0510377E-3,-0E0,5.5328914E-5,7.6567754E-3,-0E0,-1.7077455E-4,-0E0,-6.365089E-5,-0E0,-5.9308804E-5,-0E0,-5.9724766E-6,7.636129E-5,2.136624E-5,1.0671157E-4,-0E0,1.5509459E-4],"categories":[],"categories_nodes":[],"categories_segments":[],"categories_sizes":[],"default_left":[0,0,0,0,0,0,0,0,0,0,0,0,0,0,0,0,0,0,0,0,0,0,0,0,0,0,0,0,0,0,0,0,0,0,0,0,0,0,0],"id":40,"left_children":[1,3,5,7,9,11,13,15,17,19,21,-1,23,-1,25,27,-1,-1,29,31,33,-1,35,-1,-1,37,-1,-1,-1,-1,-1,-1,-1,-1,-1,-1,-1,-1,-1],"loss_changes":[9.478813E-3,4.670093E-3,6.5680966E-4,1.0595908E-3,2.02703E-3,1.7741311E-4,2.5977008E-4,5.0514005E-5,4.1010487E-4,9.243301E-4,4.8168015E-4,0E0,2.5054032E-5,0E0,9.324029E-5,3.623031E-5,0E0,0E0,2.2366177E-4,1.7993792E-4,4.6716063E-4,0E0,3.5495637E-4,0E0,0E0,9.711366E-5,0E0,0E0,0E0,0E0,0E0,0E0,0E0,0E0,0E0,0E0,0E0,0E0,0E0],"parents":[2147483647,0,0,1,1,2,2,3,3,4,4,5,5,6,6,7,7,8,8,9,9,10,10,12,12,14,14,15,15,18,18,19,19,20,20,22,22,25,25],"right_children":[2,4,6,8,10,12,14,16,18,20,22,-1,24,-1,26,28,-1,-1,30,32,34,-1,36,-1,-1,38,-1,-1,-1,-1,-1,-1,-1,-1,-1,-1,-1,-1,-1],"split_conditions":[6.697062E-1,2.2258052E-1,8.564401E-1,4.0341314E-2,4.1814768E-1,3.237473E-1,2.6467934E-2,8.438431E-1,5.7127997E-3,3.516032E-1,3E-1,-0E0,2.771359E-1,-0E0,9.4983387E-1,7.3333335E-1,-0E0,-0E0,1.7329084E0,6.3832796E-1,7.162543E-1,-0E0,4.7617096E-1,-0E0,5.5328914E-5,1.7734757E-1,-0E0,-1.7077455E-4,-0E0,-6.365089E-5,-0E0,-5.9308804E-5,-0E0,-5.9724766E-6,7.636129E-5,2.136624E-5,1.0671157E-4,-0E0,1.5509459E-4],"split_indices":[3,3,3,3,30,36,26,15,11,34,20,0,30,0,7,20,0,0,25,6,16,0,32,0,0,30,0,0,0,0,0,0,0,0,0,0,0,0,0],"split_type":[0,0,0,0,0,0,0,0,0,0,0,0,0,0,0,0,0,0,0,0,0,0,0,0,0,0,0,0,0,0,0,0,0,0,0,0,0,0,0],"sum_hessian":[1.724E3,1.434E3,2.9E2,3.84E2,1.05E3,1.32E2,1.58E2,7E1,3.14E2,7.35E2,3.15E2,1.2E1,1.2E2,9E0,1.49E2,6.9E1,1E0,2.8E1,2.86E2,2.1E2,5.25E2,9.5E1,2.2E2,4E0,1.16E2,1.43E2,6E0,6.7E1,2E0,2.8E2,6E0,1.76E2,3.4E1,4.97E2,2.8E1,1.42E2,7.8E1,2E0,1.41E2],"tree_param":{"num_deleted":"0","num_feature":"40","num_nodes":"39","size_leaf_vector":"1"}},{"base_weights":[-0E0,-1.0200546E-3,5.190062E-3,-5.5243988E-3,-2.3306468E-4,3.0122562E-3,7.992696E-3,-2.7362437E-3,-8.178465E-3,-1.3114427E-3,1.7659361E-3,-0E0,3.3991646E-3,-0E0,8.503408E-3,-0E0,-3.1407333E-3,-1.7119655E-4,-0E0,-4.545484E-3,-6.214841E-4,7.8536954E-4,5.009156E-3,-0E0,3.475472E-3,-0E0,8.658495E-3,-6.757547E-5,-0E0,-9.885294E-5,-0E0,-2.0153591E-5,4.7827652E-5,-0E0,2.7183502E-5,1.03760394E-4,-0E0,7.451591E-5,-0E0,1.7731133E-4,-0E0],"categories":[],"categories_nodes":[],"categories_segments":[],"categories_sizes":[],"default_left":[0,0,0,0,0,0,0,0,0,0,0,0,0,0,0,0,0,0,0,0,0,0,0,0,0,0,0,0,0,0,0,0,0,0,0,0,0,0,0,0,0],"id":41,"left_children":[1,3,5,7,9,11,13,15,17,19,21,-1,23,-1,25,-1,27,-1,-1,29,31,33,35,-1,37,-1,39,-1,-1,-1,-1,-1,-1,-1,-1,-1,-1,-1,-1,-1,-1],"loss_changes":[9.348257E-3,4.474411E-3,6.5767765E-4,3.1434093E-4,2.6148183E-3,2.7652865E-4,1.7837016E-4,